{"learner":{"attributes":{"best_iteration":"99","best_ntree_limit":"100","scikit_learn":"{\"use_label_encoder\": true, \"n_estimators\": 100, \"objective\": \"binary:logistic\", \"max_depth\": 10, \"learning_rate\": 0.01, \"verbosity\": null, \"booster\": null, \"tree_method\": \"gpu_hist\", \"gamma\": 1, \"min_child_weight\": null, \"max_delta_step\": null, \"subsample\": null, \"colsample_bytree\": null, \"colsample_bylevel\": null, \"colsample_bynode\": null, \"reg_alpha\": null, \"reg_lambda\": null, \"scale_pos_weight\": null, \"base_score\": null, \"missing\": NaN, \"num_parallel_tree\": null, \"random_state\": null, \"n_jobs\": -1, \"monotone_constraints\": null, \"interaction_constraints\": null, \"importance_type\": null, \"gpu_id\": null, \"validate_parameters\": null, \"predictor\": null, \"enable_categorical\": false, \"classes_\": [0, 1], \"n_classes_\": 2, \"_le\": {\"classes_\": [0, 1]}, \"_estimator_type\": \"classifier\"}"},"feature_names":["gender","city_pop","category","amt","merchant","cc_cat","age","distance","days_to_next_holiday"],"feature_types":["int","int","int","float","int","int","float","float","int"],"gradient_booster":{"model":{"gbtree_model_param":{"num_trees":"100","size_leaf_vector":"0"},"tree_info":[0,0,0,0,0,0,0,0,0,0,0,0,0,0,0,0,0,0,0,0,0,0,0,0,0,0,0,0,0,0,0,0,0,0,0,0,0,0,0,0,0,0,0,0,0,0,0,0,0,0,0,0,0,0,0,0,0,0,0,0,0,0,0,0,0,0,0,0,0,0,0,0,0,0,0,0,0,0,0,0,0,0,0,0,0,0,0,0,0,0,0,0,0,0,0,0,0,0,0,0],"trees":[{"base_weights":[5.483029E-3,-1.1975855E0,1.8511659E0,-5.64173E-1,-1.7604887E0,9.2896175E-1,1.8786639E0,-1.8611112E0,7.291312E-2,-1.9605803E0,-1.1752577E0,1.5263158E0,-1.7714286E-2,1.7347767E0,1.9638851E0,-1.939394E-2,-9.677419E-1,4E-1,-1.2053423E0,-1.451613E0,-1.9762242E0,-1.2406948E-1,-1.6612529E0,-1.3333334E-2,1.7222222E-2,1.9095719E0,-8.7323946E-1,1.9721758E-2,1.3846154E0,-6.0606062E-2,-1.8709676E-2,-1.9620853E-2,6.329114E-1,-1.9797469E-2,2.8846154E-1,-1.5E-2,-0E0,-1.9916518E-2,-1.6502732E0,-1.925926E-2,5.284281E-1,-1.8988016E0,-5.2173913E-2,1.9584632E0,1.2611465E0,-1.8350516E-2,1.1020408E0,4.4444445E-1,1.6078431E-2,1.0476191E-2,-5.3061223E-1,1.8934082E0,-0E0,-3.243243E-1,1.6874999E-2,-4E-1,-1.9455781E-2,8E-1,-1.7575758E-2,-1.9688958E-2,-1.4285715E0,-1.4871795E0,6.5E-1,1.6707819E0,1.9952578E-2,6.0240966E-1,1.8974358E-2,-1E-2,1.3777778E-2,1E-2,-0E0,-1.6190477E-2,2.5E-1,1.9657143E0,-1.5294118E-2,-6.509804E-1,7.5113124E-1,-1.3E0,3.5714287E-2,6.896552E-2,-1.2E-2,1.0935961E0,-8.450704E-2,-1.8709676E-2,-8.148148E-1,2.2222223E-3,-1.7647058E-2,1.6551724E-2,-1.6923077E-2,-1.39999995E-2,1.9118942E-2,1.3684211E0,-9.3333334E-1,-4.7619048E-1,1.2E-2,1.9768786E-2,6.666667E-3,-1.5783476E0,1.3397129E-1,1.0042194E0,1.1398964E-1,-1.5294118E0,-0E0,6.666667E-1,-8.163265E-2,-7.5E-1,8.235294E-3,1.4358975E0,-3.9215688E-2,-7.2727275E-1,1.8867925E-1,3.7037036E-1,-1.7419355E-2,1.7446809E-2,-2.8571428E-3,-1.6190477E-2,4.6153846E-1,5.4545454E-3,-1.1428571E-2,-1.9396227E-2,-4.4444445E-1,8.4563756E-1,-1.5806452E0,1.19E0,-0E0,-8.363636E-1,4.7887325E-1,-2.2222223E-3,-1.724138E-2,1E-2,-0E0,-1.0769231E-2,6.741573E-2,-1.2727272E-2,2.2222223E-3,1.1287129E0,1.8644068E-2,-1.2E-2,2.2222222E-1,2.2222223E-3,-1.0588235E-2,-5.714286E-1,4.1860464E-1,9.0909094E-1,-1.1111111E-2,-2.2222223E-3,1E-2,3.2786882E-4,-1.2727272E-2,1.1375464E-2,-1.6363636E-2,-1.8504674E-2,9.5238094E-4,9.602888E-3,1.6535433E-2,-2.6865671E-3,1.2E-2,-0E0,-1.7037038E-2,5E-4,9.69697E-3,-6.153846E-3,3.283582E-3,1.3103448E-2,-0E0,8.333333E-3,-4E-3,2.2222223E-3,-1.1111111E-2,8E-3,-3.5294117E-3,-5E-3,1.3333334E-2],"categories":[],"categories_nodes":[],"categories_segments":[],"categories_sizes":[],"default_left":[true,true,true,true,true,true,true,true,true,true,true,true,false,true,true,false,true,true,true,true,true,true,true,false,false,true,true,false,true,true,false,false,true,false,true,false,false,false,true,false,true,true,true,true,true,false,true,true,false,false,true,true,true,true,false,true,false,true,false,false,true,true,true,true,false,true,false,false,false,false,false,false,true,true,false,true,true,true,true,true,false,true,true,false,true,false,false,false,false,false,false,true,true,true,false,false,false,true,true,true,true,true,false,true,true,true,false,true,true,true,true,true,false,false,false,false,true,false,false,false,true,true,true,true,true,true,true,false,false,false,false,false,true,false,false,true,false,false,true,false,false,true,true,true,false,false,false,false,false,false,false,false,false,false,false,false,false,false,false,false,false,false,false,false,false,false,false,false,false,false,false,false,false],"id":0,"left_children":[1,3,5,7,9,11,13,15,17,19,21,23,-1,25,27,-1,29,31,33,35,37,39,41,-1,-1,43,45,-1,47,49,-1,-1,51,-1,53,-1,-1,-1,55,-1,57,59,61,63,65,-1,67,69,-1,-1,71,73,75,77,-1,79,-1,81,-1,-1,83,85,87,89,-1,91,-1,-1,-1,-1,-1,-1,93,95,-1,97,99,101,103,105,-1,107,109,-1,111,-1,-1,-1,-1,-1,-1,113,115,117,-1,-1,-1,119,121,123,125,127,-1,129,131,133,-1,135,137,139,141,143,-1,-1,-1,-1,145,-1,-1,-1,147,149,151,153,155,157,159,-1,-1,-1,-1,-1,161,-1,-1,163,-1,-1,165,-1,-1,167,169,171,-1,-1,-1,-1,-1,-1,-1,-1,-1,-1,-1,-1,-1,-1,-1,-1,-1,-1,-1,-1,-1,-1,-1,-1,-1,-1,-1,-1,-1],"loss_changes":[8.506666E3,8.2593555E2,3.659082E1,9.030327E2,1.4143579E2,7.650259E1,1.4582031E1,2.3299927E1,3.0726343E2,4.402588E0,1.6084637E2,2.35848E1,0E0,2.5433276E2,1.6574707E0,0E0,2.5286413E1,3.230834E2,1.7380316E2,2.1774216E0,1.1547852E0,1.1947019E2,8.227252E1,0E0,0E0,1.4007324E1,6.946692E1,0E0,2.6958275E0,9.150278E0,0E0,0E0,4.2541766E2,0E0,4.512747E1,0E0,0E0,0E0,1.611322E1,0E0,4.7811935E1,3.3756104E0,2.9935843E1,1.7631836E0,1.5308502E1,0E0,8.478005E0,1.1111112E0,0E0,0E0,1.0812925E1,4.7121582E1,1.745629E2,1.3043823E1,0E0,3.8344831E0,0E0,1.7621342E1,0E0,0E0,6.078171E0,5.017597E0,4.9889523E1,4.765616E1,0E0,2.5687424E1,0E0,0E0,0E0,0E0,0E0,0E0,6.090476E0,1.2200928E0,0E0,1.3942967E2,2.661322E1,2.9823532E0,2.1275508E0,5.09787E0,0E0,1.9735283E1,3.2540286E0,0E0,1.5479092E1,0E0,0E0,0E0,0E0,0E0,0E0,9.36746E0,7.920879E0,4.199135E0,0E0,0E0,0E0,3.5084824E1,1.2885118E2,2.2107887E1,1.7132084E1,1.7804813E0,0E0,1E0,3.7070892E0,2.3156567E0,0E0,3.0292435E0,4.1359477E0,1.9667258E0,2.55488E0,6.3973064E0,0E0,0E0,0E0,0E0,1.4188035E0,0E0,0E0,0E0,8.935585E0,5.583805E1,1.4194138E1,9.060226E0,6.6089554E0,9.97441E0,7.424307E0,0E0,0E0,0E0,0E0,0E0,4.1663847E0,0E0,0E0,5.17651E0,0E0,0E0,4.6111107E0,0E0,0E0,1.7460316E0,3.445691E0,3.9545455E0,0E0,0E0,0E0,0E0,0E0,0E0,0E0,0E0,0E0,0E0,0E0,0E0,0E0,0E0,0E0,0E0,0E0,0E0,0E0,0E0,0E0,0E0,0E0,0E0,0E0,0E0,0E0,0E0,0E0],"parents":[2147483647,0,0,1,1,2,2,3,3,4,4,5,5,6,6,7,7,8,8,9,9,10,10,11,11,13,13,14,14,16,16,17,17,18,18,19,19,20,20,21,21,22,22,25,25,26,26,28,28,29,29,32,32,34,34,38,38,40,40,41,41,42,42,43,43,44,44,46,46,47,47,50,50,51,51,52,52,53,53,55,55,57,57,60,60,61,61,62,62,63,63,65,65,72,72,73,73,75,75,76,76,77,77,78,78,79,79,81,81,82,82,84,84,91,91,92,92,93,93,97,97,98,98,99,99,100,100,101,101,103,103,104,104,105,105,107,107,108,108,109,109,110,110,111,111,116,116,120,120,121,121,122,122,123,123,124,124,125,125,126,126,132,132,135,135,138,138,141,141,142,142,143,143],"right_children":[2,4,6,8,10,12,14,16,18,20,22,24,-1,26,28,-1,30,32,34,36,38,40,42,-1,-1,44,46,-1,48,50,-1,-1,52,-1,54,-1,-1,-1,56,-1,58,60,62,64,66,-1,68,70,-1,-1,72,74,76,78,-1,80,-1,82,-1,-1,84,86,88,90,-1,92,-1,-1,-1,-1,-1,-1,94,96,-1,98,100,102,104,106,-1,108,110,-1,112,-1,-1,-1,-1,-1,-1,114,116,118,-1,-1,-1,120,122,124,126,128,-1,130,132,134,-1,136,138,140,142,144,-1,-1,-1,-1,146,-1,-1,-1,148,150,152,154,156,158,160,-1,-1,-1,-1,-1,162,-1,-1,164,-1,-1,166,-1,-1,168,170,172,-1,-1,-1,-1,-1,-1,-1,-1,-1,-1,-1,-1,-1,-1,-1,-1,-1,-1,-1,-1,-1,-1,-1,-1,-1,-1,-1,-1,-1],"split_conditions":[2.3827E2,2.392E1,2.6346E2,6.67E0,1.0516E2,7E0,6.9163E2,6.3E0,1.1E1,2.609E1,2E0,2E0,-1.7714286E-2,9E0,1.1906E3,-1.939394E-2,1E1,2E0,1.3E1,3.36E2,9.737E1,1E0,2.1699E2,-1.3333334E-2,1.7222222E-2,5E0,6.1774E2,1.9721758E-2,1.74625E5,4E0,-1.8709676E-2,-1.9620853E-2,4E0,-1.9797469E-2,9.92E0,-1.5E-2,-0E0,-1.9916518E-2,2E0,-1.925926E-2,1.5467E2,2.0066E2,6E0,2E0,6.1774E2,-1.8350516E-2,1.2E1,1.4564138E1,1.6078431E-2,1.0476191E-2,9E0,1.831E1,1.718E1,8.29E0,1.6874999E-2,5.1E1,-1.9455781E-2,5.1E1,-1.7575758E-2,-1.9688958E-2,6E0,1.2234981E1,7E0,3.4064E2,1.9952578E-2,7E0,1.8974358E-2,-1E-2,1.3777778E-2,1E-2,-0E0,-1.6190477E-2,2.66248E5,1.58E1,-1.5294118E-2,9E0,1E0,2.18E2,1.30759E5,3E0,-1.2E-2,1E0,2.4933731E1,-1.8709676E-2,7E0,2.2222223E-3,-1.7647058E-2,1.6551724E-2,-1.6923077E-2,-1.39999995E-2,1.9118942E-2,1E0,5.3841E2,1.40195E5,1.2E-2,1.9768786E-2,6.666667E-3,1.5E1,1E1,5.1E1,7E0,1.2218E5,-0E0,1.15E2,1.40195E5,7.001505E1,8.235294E-3,7.2021805E1,8.465366E0,7.5E1,1.1118E2,1E0,-1.7419355E-2,1.7446809E-2,-2.8571428E-3,-1.6190477E-2,1E0,5.4545454E-3,-1.1428571E-2,-1.9396227E-2,1E0,1.034E1,1.58E1,1E1,8.5E1,6E0,4.7E1,-2.2222223E-3,-1.724138E-2,1E-2,-0E0,-1.0769231E-2,3.1E1,-1.2727272E-2,2.2222223E-3,4.7E1,1.8644068E-2,-1.2E-2,4.952772E1,2.2222223E-3,-1.0588235E-2,5.5E1,6.7E1,2E0,-1.1111111E-2,-2.2222223E-3,1E-2,3.2786882E-4,-1.2727272E-2,1.1375464E-2,-1.6363636E-2,-1.8504674E-2,9.5238094E-4,9.602888E-3,1.6535433E-2,-2.6865671E-3,1.2E-2,-0E0,-1.7037038E-2,5E-4,9.69697E-3,-6.153846E-3,3.283582E-3,1.3103448E-2,-0E0,8.333333E-3,-4E-3,2.2222223E-3,-1.1111111E-2,8E-3,-3.5294117E-3,-5E-3,1.3333334E-2],"split_indices":[3,3,3,3,3,2,3,3,2,3,2,2,0,2,3,0,2,2,2,8,3,2,3,0,0,2,3,0,1,2,0,0,2,0,3,0,0,0,2,0,3,3,2,2,3,0,2,7,0,0,2,3,3,3,0,6,0,6,0,0,2,7,2,3,0,2,0,0,0,0,0,0,1,3,0,2,0,8,1,5,0,0,7,0,2,0,0,0,0,0,0,0,3,1,0,0,0,3,2,6,2,1,0,4,1,7,0,7,7,4,3,0,0,0,0,0,0,0,0,0,0,3,3,2,6,2,6,0,0,0,0,0,6,0,0,6,0,0,7,0,0,6,6,5,0,0,0,0,0,0,0,0,0,0,0,0,0,0,0,0,0,0,0,0,0,0,0,0,0,0,0,0,0],"split_type":[0,0,0,0,0,0,0,0,0,0,0,0,0,0,0,0,0,0,0,0,0,0,0,0,0,0,0,0,0,0,0,0,0,0,0,0,0,0,0,0,0,0,0,0,0,0,0,0,0,0,0,0,0,0,0,0,0,0,0,0,0,0,0,0,0,0,0,0,0,0,0,0,0,0,0,0,0,0,0,0,0,0,0,0,0,0,0,0,0,0,0,0,0,0,0,0,0,0,0,0,0,0,0,0,0,0,0,0,0,0,0,0,0,0,0,0,0,0,0,0,0,0,0,0,0,0,0,0,0,0,0,0,0,0,0,0,0,0,0,0,0,0,0,0,0,0,0,0,0,0,0,0,0,0,0,0,0,0,0,0,0,0,0,0,0,0,0,0,0,0,0,0,0],"sum_hessian":[3.829E3,2.31825E3,1.51075E3,1.09175E3,1.2265E3,4.475E1,1.466E3,3.59E2,7.3275E2,9.1225E2,3.1425E2,3.7E1,7.75E0,5.5325E2,9.1275E2,3.29E2,3E1,5.84E2,1.4875E2,3E1,8.8225E2,9.975E1,2.145E2,2E0,3.5E1,5.1875E2,3.45E1,8.975E2,1.525E1,1.55E1,1.45E1,5.175E1,5.3225E2,9.775E1,5.1E1,2.9E1,1E0,8.375E2,4.475E1,2.6E1,7.375E1,1.8675E2,2.775E1,4.805E2,3.825E1,2.325E1,1.125E1,3.5E0,1.175E1,4.25E0,1.125E1,1.7725E2,3.55E2,3.6E1,1.5E1,9E0,3.575E1,6.65E1,7.25E0,1.5975E2,2.7E1,8.75E0,1.9E1,5.975E1,4.2075E2,1.975E1,1.85E1,1E0,1.025E1,1E0,2.5E0,4.25E0,7E0,1.74E2,3.25E0,1.9025E2,1.6475E2,9E0,2.7E1,6.25E0,2.75E0,4.975E1,1.675E1,1.45E1,1.25E1,1.25E0,7.5E0,1.35E1,5.5E0,4E0,5.575E1,1.325E1,6.5E0,4.25E0,2.75E0,1.72E2,2E0,8.675E1,1.035E2,1.175E2,4.725E1,7.5E0,1.5E0,3.5E0,2.35E1,3E0,3.25E0,3.8E1,1.175E1,4.5E0,1.225E1,5.75E0,6.75E0,1.075E1,2.5E0,4.25E0,2.25E0,1.75E0,2.5E0,6.525E1,2.15E1,7.35E1,3E1,9.9E1,1.85E1,1.275E1,3.45E1,1.25E0,6.25E0,2E0,1.5E0,2.25E0,2.125E1,1.75E0,1.25E0,2.425E1,1.375E1,1.5E0,1.025E1,1.25E0,3.25E0,2.5E0,9.75E0,4.5E0,1.25E0,1.25E0,1E0,1.425E1,7.25E0,6.625E1,7.25E0,2.575E1,4.25E0,6.825E1,3.075E1,1.575E1,2.75E0,7E0,5.75E0,1.9E1,1.55E1,5.5E0,1.575E1,2.075E1,3.5E0,5E0,5.25E0,1.25E0,1.25E0,6.5E0,3.25E0,1E0,3.5E0],"tree_param":{"num_deleted":"0","num_feature":"9","num_nodes":"173","size_leaf_vector":"0"}},{"base_weights":[5.3767185E-3,-1.1858246E0,1.8328738E0,-5.586631E-1,-1.7431823E0,9.194362E-1,1.8601115E0,-1.8427733E0,7.2106645E-2,-1.9412379E0,-1.1639142E0,1.5112619E0,-1.7558612E-2,1.7176565E0,1.9444841E0,-1.9202393E-2,-9.5871574E-1,3.9596716E-1,-1.1935531E0,-1.4376569E0,-1.9567151E0,-1.2308904E-1,-1.6451341E0,-1.32448515E-2,1.7056016E-2,1.8907555E0,-8.6497796E-1,1.952666E-2,1.3724405E0,-5.9983343E-2,-1.8536173E-2,-1.9430207E-2,6.2659365E-1,-1.9603405E-2,2.854663E-1,-1.4855813E-2,-0E0,-1.9719547E-2,-1.6346375E0,-1.9075513E-2,5.2308124E-1,-1.8803012E0,-5.2205168E-2,1.9391215E0,1.2492651E0,-1.8176049E-2,1.0913746E0,4.4222465E-3,1.5931208E-2,1.0391615E-2,-5.261563E-1,1.874716E0,-7.2353876E-5,-3.2171163E-1,1.6717914E-2,-3.9743647E-1,-1.92683E-2,7.9219675E-1,-1.742249E-2,-1.9495178E-2,-1.4157758E0,-1.4739784E0,6.435238E-1,1.6543028E0,1.9755498E-2,5.967159E-1,1.8795954E-2,-5.2220887E-5,1.3058542E0,-1.6060267E-2,2.4825929E-1,1.9463959E0,-1.5177844E-2,-6.447928E-1,7.438133E-1,-1.2890068E0,3.5226826E-2,6.7963876E-2,-1.1912326E-2,1.0831827E0,-8.438343E-2,-1.8536173E-2,-8.082056E-1,2.2098797E-3,-1.7492555E-2,1.6398668E-2,-1.6780904E-2,-1.3888555E-2,1.8932827E-2,1.3558394E0,-9.251596E-1,2.1721523E-3,1.4329178E0,-4.7257507E-1,1.1912314E-2,1.9574147E-2,6.622242E-3,-1.5630413E0,1.324218E-1,9.945085E-1,1.1270965E-1,-1.516491E0,-0E0,1.3796507E-1,-6.6593015E-1,-7.451398E-1,8.172423E-3,1.4224288E0,-3.942547E-2,-7.2153324E-1,1.8646114E-1,3.6626625E-1,-1.7268782E-2,1.7288398E-2,-2.8367382E-3,-1.6060267E-2,4.5931996E-3,2.172151E-3,1.6009696E-2,5.465943E-3,-1.1383322E-2,-1.9206975E-2,-4.4055688E-1,8.371433E-1,-1.5655167E0,1.1784049E0,4.777695E-4,-8.2926446E-1,4.7437653E-1,-2.2098774E-3,-1.7093847E-2,3.4055004E-1,-6.0828805E-1,-1.1991433E-2,2.2248668E-3,-1.2646608E-2,2.2098792E-3,1.1179843E0,1.8471768E-2,-1.1928269E-2,2.2038741E-1,2.209879E-3,-1.0507491E-2,-5.682604E-1,4.148388E-1,9.01542E-3,-1.1049573E-2,3.248058E-4,-1.2615877E-2,1.1263753E-2,-1.6220791E-2,-1.8328058E-2,9.4467244E-4,9.508463E-3,1.6376374E-2,-2.6613083E-3,1.1912317E-2,-1.2646399E-2,6.689446E-3,4.952479E-4,9.6060885E-3,1.4424316E-3,1.057194E-2,-9.997483E-3,1.8230306E-3,1.2978972E-2,-0E0,8.26401E-3,-3.966412E-3,2.2098788E-3,-1.1049573E-2,7.930774E-3,-3.5024295E-3],"categories":[],"categories_nodes":[],"categories_segments":[],"categories_sizes":[],"default_left":[false,false,false,false,true,true,true,true,false,true,false,true,false,true,true,false,true,true,false,true,true,true,true,false,false,true,true,false,true,true,false,false,false,false,true,false,false,false,true,false,true,true,true,false,true,false,true,false,false,false,false,true,true,false,false,false,false,true,false,false,false,true,true,true,false,true,false,false,true,false,false,false,false,false,true,true,false,true,false,false,false,false,true,false,false,false,false,false,false,true,true,false,true,true,false,false,false,true,true,true,true,true,false,true,false,false,false,true,true,true,true,true,false,false,false,false,false,false,false,false,false,false,true,true,true,true,false,false,true,false,false,true,false,false,false,false,false,true,false,false,true,false,false,true,true,false,false,false,false,false,false,false,false,false,false,false,false,false,false,false,false,false,false,false,false,false,false,false,false,false,false,false,false],"id":1,"left_children":[1,3,5,7,9,11,13,15,17,19,21,23,-1,25,27,-1,29,31,33,35,37,39,41,-1,-1,43,45,-1,47,49,-1,-1,51,-1,53,-1,-1,-1,55,-1,57,59,61,63,65,-1,67,-1,-1,-1,69,71,73,75,-1,77,-1,79,-1,-1,81,83,85,87,-1,89,-1,-1,91,-1,93,95,-1,97,99,101,103,105,-1,107,109,-1,111,-1,-1,-1,-1,-1,-1,113,115,-1,117,119,-1,-1,-1,121,123,125,127,129,-1,131,133,135,-1,137,139,141,143,145,-1,-1,-1,-1,-1,-1,-1,-1,-1,-1,147,149,151,153,155,157,159,-1,-1,161,163,-1,-1,-1,-1,165,-1,-1,167,-1,-1,169,171,-1,-1,-1,-1,-1,-1,-1,-1,-1,-1,-1,-1,-1,-1,-1,-1,-1,-1,-1,-1,-1,-1,-1,-1,-1,-1,-1,-1],"loss_changes":[8.339028E3,8.0965967E2,3.5898438E1,8.851699E2,1.3855542E2,7.508478E1,1.4291016E1,2.2811157E1,3.0121457E2,4.304199E0,1.5768298E2,2.3199295E1,0E0,2.4939014E2,1.5964355E0,0E0,2.4819908E1,3.167651E2,1.7037733E2,2.1357574E0,1.1113281E0,1.1716295E2,8.062189E1,0E0,0E0,1.3701904E1,6.813953E1,0E0,2.6311283E0,9.00092E0,0E0,0E0,4.1705908E2,0E0,4.4307194E1,0E0,0E0,0E0,1.5771591E1,0E0,4.6948593E1,3.276001E0,2.9385267E1,1.7271729E0,1.5021641E1,0E0,2.8878698E0,0E0,0E0,0E0,1.0642604E1,4.6295837E1,1.7120898E2,1.2819985E1,0E0,3.7752068E0,0E0,1.7308167E1,0E0,0E0,5.949917E0,4.935499E0,4.9011276E1,4.680629E1,0E0,2.5225363E1,0E0,0E0,1.106535E0,0E0,6.000629E0,1.1798096E0,0E0,1.3668954E2,2.6111275E1,2.9321518E0,2.1088607E0,5.0258794E0,0E0,1.9382877E1,3.1975875E0,0E0,1.5197624E1,0E0,0E0,0E0,0E0,0E0,0E0,9.204353E0,7.8072405E0,0E0,1.490879E0,4.184368E0,0E0,0E0,0E0,3.437967E1,1.2634677E2,2.1660378E1,1.6830967E1,1.746233E0,0E0,4.02441E0,2.0432332E0,2.2871332E0,0E0,2.9777908E0,4.0836096E0,1.9387856E0,2.519501E0,6.3117027E0,0E0,0E0,0E0,0E0,0E0,0E0,0E0,0E0,0E0,0E0,8.779377E0,5.4816032E1,1.3926735E1,8.892715E0,6.5075555E0,9.814604E0,7.285822E0,0E0,0E0,2.7314696E0,1.9617844E0,0E0,0E0,0E0,0E0,5.078602E0,0E0,0E0,4.5344315E0,0E0,0E0,1.7267207E0,3.38861E0,0E0,0E0,0E0,0E0,0E0,0E0,0E0,0E0,0E0,0E0,0E0,0E0,0E0,0E0,0E0,0E0,0E0,0E0,0E0,0E0,0E0,0E0,0E0,0E0,0E0,0E0,0E0,0E0],"parents":[2147483647,0,0,1,1,2,2,3,3,4,4,5,5,6,6,7,7,8,8,9,9,10,10,11,11,13,13,14,14,16,16,17,17,18,18,19,19,20,20,21,21,22,22,25,25,26,26,28,28,29,29,32,32,34,34,38,38,40,40,41,41,42,42,43,43,44,44,46,46,50,50,51,51,52,52,53,53,55,55,57,57,60,60,61,61,62,62,63,63,65,65,68,68,70,70,71,71,73,73,74,74,75,75,76,76,77,77,79,79,80,80,82,82,89,89,90,90,92,92,93,93,97,97,98,98,99,99,100,100,101,101,103,103,104,104,105,105,107,107,108,108,109,109,110,110,111,111,122,122,123,123,124,124,125,125,126,126,127,127,128,128,131,131,132,132,137,137,140,140,143,143,144,144],"right_children":[2,4,6,8,10,12,14,16,18,20,22,24,-1,26,28,-1,30,32,34,36,38,40,42,-1,-1,44,46,-1,48,50,-1,-1,52,-1,54,-1,-1,-1,56,-1,58,60,62,64,66,-1,68,-1,-1,-1,70,72,74,76,-1,78,-1,80,-1,-1,82,84,86,88,-1,90,-1,-1,92,-1,94,96,-1,98,100,102,104,106,-1,108,110,-1,112,-1,-1,-1,-1,-1,-1,114,116,-1,118,120,-1,-1,-1,122,124,126,128,130,-1,132,134,136,-1,138,140,142,144,146,-1,-1,-1,-1,-1,-1,-1,-1,-1,-1,148,150,152,154,156,158,160,-1,-1,162,164,-1,-1,-1,-1,166,-1,-1,168,-1,-1,170,172,-1,-1,-1,-1,-1,-1,-1,-1,-1,-1,-1,-1,-1,-1,-1,-1,-1,-1,-1,-1,-1,-1,-1,-1,-1,-1,-1,-1],"split_conditions":[2.3827E2,2.392E1,2.6346E2,6.67E0,1.0516E2,7E0,6.9163E2,6.3E0,1.1E1,2.609E1,2E0,2E0,-1.7558612E-2,9E0,1.1906E3,-1.9202393E-2,1E1,2E0,1.3E1,3.36E2,9.737E1,1E0,2.1699E2,-1.32448515E-2,1.7056016E-2,5E0,6.1774E2,1.952666E-2,1.74625E5,4E0,-1.8536173E-2,-1.9430207E-2,4E0,-1.9603405E-2,9.92E0,-1.4855813E-2,-0E0,-1.9719547E-2,2E0,-1.9075513E-2,1.5467E2,2.0066E2,6E0,2E0,6.1774E2,-1.8176049E-2,1.2218E5,4.4222465E-3,1.5931208E-2,1.0391615E-2,9E0,1.831E1,1.718E1,8.29E0,1.6717914E-2,5.1E1,-1.92683E-2,5.1E1,-1.742249E-2,-1.9495178E-2,6E0,1.2234981E1,7E0,3.4064E2,1.9755498E-2,7E0,1.8795954E-2,-5.2220887E-5,3.8E1,-1.6060267E-2,2.66248E5,1.58E1,-1.5177844E-2,9E0,1E0,2.18E2,8.61799E5,3E0,-1.1912326E-2,1E0,2.4933731E1,-1.8536173E-2,7E0,2.2098797E-3,-1.7492555E-2,1.6398668E-2,-1.6780904E-2,-1.3888555E-2,1.8932827E-2,1E0,5.3841E2,2.1721523E-3,4E1,1.09E2,1.1912314E-2,1.9574147E-2,6.622242E-3,1.5E1,1E1,5.1E1,7E0,1.2218E5,-0E0,9.460958E1,2.936116E6,7.001505E1,8.172423E-3,7.2021805E1,8.465366E0,7.5E1,1.1118E2,1E0,-1.7268782E-2,1.7288398E-2,-2.8367382E-3,-1.6060267E-2,4.5931996E-3,2.172151E-3,1.6009696E-2,5.465943E-3,-1.1383322E-2,-1.9206975E-2,1E0,1.034E1,1.58E1,1E1,8.5E1,5.9E1,4.7E1,-2.2098774E-3,-1.7093847E-2,7.492245E1,3.32386E5,-1.1991433E-2,2.2248668E-3,-1.2646608E-2,2.2098792E-3,4.7E1,1.8471768E-2,-1.1928269E-2,4.952772E1,2.209879E-3,-1.0507491E-2,5.5E1,6.7E1,9.01542E-3,-1.1049573E-2,3.248058E-4,-1.2615877E-2,1.1263753E-2,-1.6220791E-2,-1.8328058E-2,9.4467244E-4,9.508463E-3,1.6376374E-2,-2.6613083E-3,1.1912317E-2,-1.2646399E-2,6.689446E-3,4.952479E-4,9.6060885E-3,1.4424316E-3,1.057194E-2,-9.997483E-3,1.8230306E-3,1.2978972E-2,-0E0,8.26401E-3,-3.966412E-3,2.2098788E-3,-1.1049573E-2,7.930774E-3,-3.5024295E-3],"split_indices":[3,3,3,3,3,2,3,3,2,3,2,2,0,2,3,0,2,2,2,8,3,2,3,0,0,2,3,0,1,2,0,0,2,0,3,0,0,0,2,0,3,3,2,2,3,0,1,0,0,0,2,3,3,3,0,6,0,6,0,0,2,7,2,3,0,2,0,0,4,0,1,3,0,2,0,8,1,5,0,0,7,0,2,0,0,0,0,0,0,0,3,0,8,4,0,0,0,3,2,6,2,1,0,7,1,7,0,7,7,4,3,0,0,0,0,0,0,0,0,0,0,0,0,3,3,2,6,6,6,0,0,7,1,0,0,0,0,6,0,0,7,0,0,6,6,0,0,0,0,0,0,0,0,0,0,0,0,0,0,0,0,0,0,0,0,0,0,0,0,0,0,0,0],"split_type":[0,0,0,0,0,0,0,0,0,0,0,0,0,0,0,0,0,0,0,0,0,0,0,0,0,0,0,0,0,0,0,0,0,0,0,0,0,0,0,0,0,0,0,0,0,0,0,0,0,0,0,0,0,0,0,0,0,0,0,0,0,0,0,0,0,0,0,0,0,0,0,0,0,0,0,0,0,0,0,0,0,0,0,0,0,0,0,0,0,0,0,0,0,0,0,0,0,0,0,0,0,0,0,0,0,0,0,0,0,0,0,0,0,0,0,0,0,0,0,0,0,0,0,0,0,0,0,0,0,0,0,0,0,0,0,0,0,0,0,0,0,0,0,0,0,0,0,0,0,0,0,0,0,0,0,0,0,0,0,0,0,0,0,0,0,0,0,0,0,0,0,0,0],"sum_hessian":[3.8286611E3,2.318055E3,1.5106062E3,1.0916681E3,1.2263868E3,4.4746708E1,1.4658595E3,3.5896722E2,7.3270087E2,9.121617E2,3.1422516E2,3.6997314E1,7.749392E0,5.531975E2,9.12662E2,3.289691E2,2.9998142E1,5.8396216E2,1.4873871E2,2.999836E1,8.821633E2,9.974453E1,2.1448062E2,1.9999096E0,3.4997406E1,5.1869995E2,3.449753E1,8.974128E2,1.5249216E1,1.5499411E1,1.4498732E1,5.174502E1,5.3221716E2,9.7740425E1,5.0998287E1,2.899836E1,1E0,8.3741693E2,4.4746384E1,2.5997583E1,7.374695E1,1.8673253E2,2.7748096E1,4.8045276E2,3.8247208E1,2.3248043E1,1.1249489E1,3.4999752E0,1.1749241E1,4.2498827E0,1.1249528E1,1.7723299E2,3.549842E2,3.5999355E1,1.4998933E1,8.999773E0,3.5746613E1,6.6497505E1,7.2494397E0,1.5973451E2,2.6998018E1,8.749415E0,1.8998682E1,5.974471E1,4.2070804E2,1.9748873E1,1.8498335E1,1.9999164E0,9.249573E0,4.2497215E0,6.9998064E0,1.7398317E2,3.2498097E0,1.9023878E2,1.647454E2,8.999534E0,2.699982E1,6.2498727E0,2.7499003E0,4.9747753E1,1.6749754E1,1.4498732E1,1.2499287E1,1.2499993E0,7.4994164E0,1.3499076E1,5.499606E0,3.999803E0,5.5744907E1,1.3249178E1,6.499695E0,1.2499467E0,7.999626E0,4.249905E0,2.7499013E0,1.719832E2,1.9999726E0,8.6743576E1,1.0349521E2,1.1749619E2,4.7249218E1,7.4995337E0,1.5E0,2.424981E1,2.7500138E0,2.9999278E0,3.249945E0,3.7997913E1,1.1749839E1,4.4999075E0,1.2249847E1,5.749799E0,6.749488E0,1.0749183E1,2.499995E0,4.2497215E0,2.2499733E0,1.2499464E0,6.7496796E0,1.7499679E0,2.499937E0,6.5243866E1,2.1499706E1,7.349741E1,2.9997795E1,9.899632E1,1.8499872E1,1.2749583E1,3.4499634E1,1.2499982E0,6.2495356E0,1.9499847E1,4.749961E0,1.4999909E0,1.2500229E0,1.7499292E0,1.2499986E0,2.4249107E1,1.3748805E1,1.4999462E0,1.0249892E1,1.2499983E0,3.2499092E0,2.4999604E0,9.7498865E0,4.4998374E0,1.2499614E0,1.425E1,7.2497067E0,6.62479E1,7.2495146E0,2.5747797E1,4.249999E0,6.824843E1,3.0747898E1,1.5749971E1,2.7499003E0,9.9996195E0,2.749964E0,1.8999998E1,1.5499636E1,1.6249872E1,3.2499752E0,2.9999707E0,1.7499903E0,2.0749107E1,3.5E0,4.9999127E0,5.2499795E0,1.249999E0,1.2499614E0,6.4998965E0,3.24999E0],"tree_param":{"num_deleted":"0","num_feature":"9","num_nodes":"173","size_leaf_vector":"0"}},{"base_weights":[5.2772285E-3,-1.17437E0,1.8151073E0,-5.5328065E-1,-1.7263597E0,9.1013694E-1,1.8420949E0,-1.8249433E0,7.133002E-2,-1.9224538E0,-1.152857E0,1.4965641E0,-1.7406696E-2,1.7010453E0,1.9256346E0,-1.9016251E-2,-9.498818E-1,3.9204347E-1,-1.182069E0,-1.2222677E0,-1.9327868E-2,-1.2212999E-1,-1.6294557E0,-1.3157704E-2,1.6893812E-2,1.8724725E0,-8.564384E-1,1.9337198E-2,1.3601593E0,-5.936818E-2,-1.8367248E-2,-1.9244991E-2,6.204346E-1,-1.9414958E-2,2.82475E-1,-1.4830911E-2,-2.9227245E-1,-1.8896837E-2,5.178291E-1,-1.8623168E0,-5.2238375E-2,1.9203411E0,1.237588E0,-1.800611E-2,1.0822252E0,4.3878756E-3,1.5787192E-2,1.0308224E-2,-5.21772E-1,1.8565578E0,-1.1291772E-4,-3.19191E-1,1.656448E-2,3.5328802E-3,-8.902196E-3,7.8452593E-1,-1.7272875E-2,-1.930697E-2,-1.4032553E0,-1.461068E0,6.371946E-1,1.6382675E0,1.9564185E-2,5.9098697E-1,1.8622365E-2,-5.1874773E-5,1.2949343E0,-1.5932774E-2,2.4654065E-1,1.9276329E0,-1.5063789E-2,-6.387389E-1,7.3667157E-1,-1.2782248E0,3.466379E-2,1.0729622E0,-8.425921E-2,-1.8367246E-2,-8.0166787E-1,2.1976046E-3,-1.734176E-2,1.6249077E-2,-1.6641913E-2,-1.3779048E-2,1.8751843E-2,1.3435264E0,-9.175423E-1,2.1600982E-3,1.4207977E0,-4.6899232E-1,1.1825889E-2,1.9385137E-2,6.578269E-3,-1.5481076E0,1.3090149E-1,9.8495394E-1,1.11673325E-1,-1.5038431E0,-0E0,6.613719E-3,-8.1860065E-2,1.4092356E0,-3.9631035E-2,-7.158626E-1,1.8427004E-1,3.6232328E-1,-1.7121749E-2,1.7133776E-2,-2.8164883E-3,-1.5932774E-2,4.5614415E-3,2.1600977E-3,1.5872678E-2,5.4311696E-3,-1.1302569E-2,-1.9023044E-2,-4.3671468E-1,8.2879263E-1,-1.5507507E0,1.1670072E0,9.474389E-4,-8.2146347E-1,4.6993202E-1,-2.197605E-3,-1.694972E-2,-1.0687368E-2,6.596752E-2,1.1074349E0,1.8303992E-2,-1.1857458E-2,2.185718E-1,2.1976046E-3,-1.0427803E-2,-5.651232E-1,4.111155E-1,8.942111E-3,-1.0988751E-2,3.2177134E-4,-1.2506337E-2,1.11538535E-2,-1.6081063E-2,-1.8156081E-2,9.3702733E-4,9.415385E-3,1.6220963E-2,-2.6362978E-3,1.182589E-2,5.627445E-5,-1.6801434E-2,4.9054605E-4,9.516478E-3,-6.101364E-3,3.2439616E-3,1.2856717E-2,-0E0,8.195495E-3,-3.933133E-3,2.1976046E-3,-1.0988754E-2,7.862368E-3,-3.4756714E-3],"categories":[],"categories_nodes":[],"categories_segments":[],"categories_sizes":[],"default_left":[true,false,true,false,true,true,true,false,true,false,false,false,false,true,false,false,true,false,false,true,false,false,true,false,false,true,true,false,true,true,false,false,false,false,false,false,true,false,true,true,false,false,true,false,true,false,false,false,false,true,true,false,false,false,false,false,false,false,true,false,false,false,false,true,false,false,true,false,false,true,false,false,false,true,true,true,true,false,true,false,false,false,false,false,false,true,true,false,true,true,false,false,false,true,true,true,true,false,false,false,true,false,true,false,true,true,false,false,false,false,false,false,false,false,false,false,true,true,false,true,true,false,false,false,false,false,false,true,false,false,true,false,false,false,false,false,false,false,false,false,false,false,false,false,false,false,false,false,false,false,false,false,false,false,false,false,false,false,false,false,false],"id":2,"left_children":[1,3,5,7,9,11,13,15,17,19,21,23,-1,25,27,-1,29,31,33,35,-1,37,39,-1,-1,41,43,-1,45,47,-1,-1,49,-1,51,-1,53,-1,55,57,59,61,63,-1,65,-1,-1,-1,67,69,71,73,-1,-1,-1,75,-1,-1,77,79,81,83,-1,85,-1,-1,87,-1,89,91,-1,93,95,97,99,101,103,-1,105,-1,-1,-1,-1,-1,-1,107,109,-1,111,113,-1,-1,-1,115,117,119,121,123,-1,-1,125,127,129,131,133,135,-1,-1,-1,-1,-1,-1,-1,-1,-1,-1,137,139,141,143,145,147,149,-1,-1,-1,151,153,-1,-1,155,-1,-1,157,159,-1,-1,-1,-1,-1,-1,-1,-1,-1,-1,-1,-1,-1,-1,-1,-1,-1,-1,-1,-1,-1,-1,-1,-1,-1,-1],"loss_changes":[8.176171E3,7.938999E2,3.5230957E1,8.678379E2,1.3577856E2,7.3703445E1,1.4003906E1,2.234143E1,2.9533966E2,4.2424316E0,1.5461719E2,2.282322E1,0E0,2.4450842E2,1.5458984E0,0E0,2.436734E1,3.106253E2,1.6705292E2,3.4467564E0,0E0,1.1491864E2,7.902191E1,0E0,0E0,1.3413086E1,6.6911705E1,0E0,2.5790062E0,8.854518E0,0E0,0E0,4.0894238E2,0E0,4.3510265E1,0E0,2.1477337E0,0E0,4.610558E1,3.182129E0,2.8848345E1,1.6929932E0,1.4748001E1,0E0,2.839777E0,0E0,0E0,0E0,1.0476179E1,4.5493103E1,1.679497E2,1.2599783E1,0E0,0E0,0E0,1.700269E1,0E0,0E0,5.827114E0,4.855755E0,4.815446E1,4.597972E1,0E0,2.4783699E1,0E0,0E0,1.0847912E0,0E0,5.9123683E0,1.1417847E0,0E0,1.3402481E2,2.5607658E1,2.8833752E0,2.0988436E0,1.9039898E1,3.1422172E0,0E0,1.4925177E1,0E0,0E0,0E0,0E0,0E0,0E0,9.045906E0,7.687548E0,0E0,1.4618721E0,4.127358E0,0E0,0E0,0E0,3.3702164E1,1.2390506E2,2.1224472E1,1.651527E1,1.7131786E0,0E0,0E0,3.6446893E0,2.9290924E0,4.032089E0,1.9113452E0,2.48468E0,6.2282224E0,0E0,0E0,0E0,0E0,0E0,0E0,0E0,0E0,0E0,0E0,8.626697E0,5.381702E1,1.3668243E1,8.732071E0,6.407999E0,9.773811E0,7.15041E0,0E0,0E0,0E0,4.0854945E0,4.9832916E0,0E0,0E0,4.4591374E0,0E0,0E0,1.7076889E0,3.3325708E0,0E0,0E0,0E0,0E0,0E0,0E0,0E0,0E0,0E0,0E0,0E0,0E0,0E0,0E0,0E0,0E0,0E0,0E0,0E0,0E0,0E0,0E0,0E0,0E0,0E0,0E0],"parents":[2147483647,0,0,1,1,2,2,3,3,4,4,5,5,6,6,7,7,8,8,9,9,10,10,11,11,13,13,14,14,16,16,17,17,18,18,19,19,21,21,22,22,25,25,26,26,28,28,29,29,32,32,34,34,36,36,38,38,39,39,40,40,41,41,42,42,44,44,48,48,49,49,50,50,51,51,55,55,58,58,59,59,60,60,61,61,63,63,66,66,68,68,69,69,71,71,72,72,73,73,74,74,75,75,76,76,78,78,85,85,86,86,88,88,89,89,93,93,94,94,95,95,96,96,97,97,100,100,101,101,102,102,103,103,104,104,105,105,116,116,117,117,118,118,119,119,120,120,121,121,122,122,126,126,127,127,130,130,133,133,134,134],"right_children":[2,4,6,8,10,12,14,16,18,20,22,24,-1,26,28,-1,30,32,34,36,-1,38,40,-1,-1,42,44,-1,46,48,-1,-1,50,-1,52,-1,54,-1,56,58,60,62,64,-1,66,-1,-1,-1,68,70,72,74,-1,-1,-1,76,-1,-1,78,80,82,84,-1,86,-1,-1,88,-1,90,92,-1,94,96,98,100,102,104,-1,106,-1,-1,-1,-1,-1,-1,108,110,-1,112,114,-1,-1,-1,116,118,120,122,124,-1,-1,126,128,130,132,134,136,-1,-1,-1,-1,-1,-1,-1,-1,-1,-1,138,140,142,144,146,148,150,-1,-1,-1,152,154,-1,-1,156,-1,-1,158,160,-1,-1,-1,-1,-1,-1,-1,-1,-1,-1,-1,-1,-1,-1,-1,-1,-1,-1,-1,-1,-1,-1,-1,-1,-1,-1],"split_conditions":[2.3827E2,2.392E1,2.6346E2,6.67E0,1.0516E2,7E0,6.9163E2,6.3E0,1.1E1,2.502E1,2E0,2E0,-1.7406696E-2,9E0,1.1906E3,-1.9016251E-2,1E1,2E0,1.3E1,7.287329E1,-1.9327868E-2,1E0,2.1699E2,-1.3157704E-2,1.6893812E-2,5E0,6.1774E2,1.9337198E-2,1.74625E5,4E0,-1.8367248E-2,-1.9244991E-2,4E0,-1.9414958E-2,9.92E0,-1.4830911E-2,8E0,-1.8896837E-2,1.5467E2,2.0066E2,6E0,2E0,6.1774E2,-1.800611E-2,1.2218E5,4.3878756E-3,1.5787192E-2,1.0308224E-2,9E0,1.831E1,1.718E1,8.29E0,1.656448E-2,3.5328802E-3,-8.902196E-3,5.1E1,-1.7272875E-2,-1.930697E-2,6E0,1.2234981E1,7E0,3.4064E2,1.9564185E-2,7E0,1.8622365E-2,-5.1874773E-5,3.8E1,-1.5932774E-2,2.66248E5,1.58E1,-1.5063789E-2,9E0,1E0,2.18E2,1.30759E5,1E0,2.4933731E1,-1.8367246E-2,7E0,2.1976046E-3,-1.734176E-2,1.6249077E-2,-1.6641913E-2,-1.3779048E-2,1.8751843E-2,1E0,5.3841E2,2.1600982E-3,4E1,1.09E2,1.1825889E-2,1.9385137E-2,6.578269E-3,1.5E1,1E1,5.1E1,7E0,1.2218E5,-0E0,6.613719E-3,1.40195E5,7.2021805E1,8.465366E0,7.5E1,1.1118E2,1E0,-1.7121749E-2,1.7133776E-2,-2.8164883E-3,-1.5932774E-2,4.5614415E-3,2.1600977E-3,1.5872678E-2,5.4311696E-3,-1.1302569E-2,-1.9023044E-2,1E0,1.034E1,1.58E1,1E1,8.5E1,6E0,4.7E1,-2.197605E-3,-1.694972E-2,-1.0687368E-2,3.1E1,4.7E1,1.8303992E-2,-1.1857458E-2,4.952772E1,2.1976046E-3,-1.0427803E-2,5.5E1,6.7E1,8.942111E-3,-1.0988751E-2,3.2177134E-4,-1.2506337E-2,1.11538535E-2,-1.6081063E-2,-1.8156081E-2,9.3702733E-4,9.415385E-3,1.6220963E-2,-2.6362978E-3,1.182589E-2,5.627445E-5,-1.6801434E-2,4.9054605E-4,9.516478E-3,-6.101364E-3,3.2439616E-3,1.2856717E-2,-0E0,8.195495E-3,-3.933133E-3,2.1976046E-3,-1.0988754E-2,7.862368E-3,-3.4756714E-3],"split_indices":[3,3,3,3,3,2,3,3,2,3,2,2,0,2,3,0,2,2,2,7,0,2,3,0,0,2,3,0,1,2,0,0,2,0,3,0,2,0,3,3,2,2,3,0,1,0,0,0,2,3,3,3,0,0,0,6,0,0,2,7,2,3,0,2,0,0,4,0,1,3,0,2,0,8,1,0,7,0,2,0,0,0,0,0,0,0,3,0,8,4,0,0,0,3,2,6,2,1,0,0,1,7,7,4,3,0,0,0,0,0,0,0,0,0,0,0,0,3,3,2,6,2,6,0,0,0,6,6,0,0,7,0,0,6,6,0,0,0,0,0,0,0,0,0,0,0,0,0,0,0,0,0,0,0,0,0,0,0,0,0,0],"split_type":[0,0,0,0,0,0,0,0,0,0,0,0,0,0,0,0,0,0,0,0,0,0,0,0,0,0,0,0,0,0,0,0,0,0,0,0,0,0,0,0,0,0,0,0,0,0,0,0,0,0,0,0,0,0,0,0,0,0,0,0,0,0,0,0,0,0,0,0,0,0,0,0,0,0,0,0,0,0,0,0,0,0,0,0,0,0,0,0,0,0,0,0,0,0,0,0,0,0,0,0,0,0,0,0,0,0,0,0,0,0,0,0,0,0,0,0,0,0,0,0,0,0,0,0,0,0,0,0,0,0,0,0,0,0,0,0,0,0,0,0,0,0,0,0,0,0,0,0,0,0,0,0,0,0,0,0,0,0,0,0,0],"sum_hessian":[3.8276592E3,2.317478E3,1.5101812E3,1.0914261E3,1.2260519E3,4.4737015E1,1.4654441E3,3.5887024E2,7.325559E2,9.119E2,3.1415182E2,3.6989426E1,7.7475905E0,5.5304266E2,9.124014E2,3.288775E2,2.9992743E1,5.838504E2,1.4870549E2,1.4996657E1,8.969034E2,9.972835E1,2.144235E2,1.9996468E0,3.498978E1,5.185521E2,3.449053E1,8.971545E2,1.5246954E1,1.549777E1,1.4494972E1,5.1730274E1,5.321201E2,9.771207E1,5.099342E1,1.1247493E1,3.7491643E0,2.599045E1,7.37379E1,1.8668103E2,2.7742455E1,4.8031314E2,3.8238983E1,2.3242243E1,1.1248284E1,3.4999633E0,1.174699E1,4.249539E0,1.1248232E1,1.7718262E2,3.549375E2,3.599765E1,1.49957695E1,1.9995544E0,1.74961E0,6.649012E1,7.247781E0,1.5968867E2,2.6992348E1,8.747679E0,1.8994776E1,5.9729046E1,4.205841E2,1.9745579E1,1.8493404E1,1.9999163E0,9.248368E0,4.248895E0,6.9993362E0,1.7393336E2,3.2492456E0,1.902054E2,1.647321E2,8.998152E0,2.6999498E1,4.974109E1,1.6749025E1,1.4494972E1,1.24973755E1,1.2499939E0,7.497685E0,1.3496336E1,5.4984393E0,3.9992223E0,5.5729824E1,1.3246738E1,6.4988403E0,1.2499328E0,7.998435E0,4.249729E0,2.7496073E0,1.7193346E2,1.9999117E0,8.672453E1,1.03480865E2,1.1748494E2,4.7247166E1,7.498152E0,1.5E0,3.4999E0,2.3499598E1,3.7991734E1,1.1749357E1,4.499637E0,1.2249388E1,5.7494054E0,6.74797E0,1.0746758E1,2.4999797E0,4.248895E0,2.249945E0,1.2499325E0,6.7485027E0,1.7499633E0,2.4997659E0,6.52257E1,2.1498835E1,7.34896E1,2.9991264E1,9.898544E1,1.8499495E1,1.2748614E1,3.449855E1,1.2499939E0,6.248158E0,2.2499073E0,2.1249691E1,2.4246471E1,1.3745262E1,1.499785E0,1.0249572E1,1.2499939E0,3.2496433E0,2.49984E0,9.749548E0,4.499559E0,1.2498465E0,1.4249999E1,7.248836E0,6.624152E1,7.248076E0,2.5741268E1,4.2499957E0,6.824377E1,3.0741674E1,1.5749887E1,2.7496068E0,6.9997845E0,5.74883E0,1.8999996E1,1.5498555E1,5.499884E0,1.5749806E1,2.0746471E1,3.5E0,4.9996552E0,5.2499166E0,1.2499939E0,1.2498461E0,6.499588E0,3.2499602E0],"tree_param":{"num_deleted":"0","num_feature":"9","num_nodes":"161","size_leaf_vector":"0"}},{"base_weights":[5.1842513E-3,-1.1632043E0,1.7978402E0,-5.4804E-1,-1.7099718E0,9.010564E-1,1.8245867E0,-1.8076012E0,7.055423E-2,-1.904163E0,-1.1420771E0,1.4822128E0,-1.72584E-2,1.684899E0,1.9073195E0,-1.8835293E-2,-9.412397E-1,3.88188E-1,-1.1708717E0,-1.40937185E-2,-1.9193777E0,-1.2119178E-1,-1.6142037E0,-1.3071901E-2,1.673551E-2,1.8547071E0,-8.480926E-1,1.915313E-2,1.3481162E0,-5.8766402E-2,-1.820272E-2,-1.9064985E-2,6.1438805E-1,-1.9231886E-2,2.7951118E-1,-1.9344535E-2,-1.6011318E0,-1.8723045E-2,5.126687E-1,-1.8448318E0,-5.22734E-2,1.9020987E0,1.226187E0,-1.7840525E-2,1.0732285E0,4.3538315E-3,1.5646268E-2,1.0225846E-2,-5.174629E-1,1.8389112E0,-1.8345586E-4,-3.1672934E-1,1.641455E-2,-3.7756264E-1,-1.8906703E-2,7.769836E-1,-1.7126786E-2,-1.9124098E-2,-1.3910295E0,-1.4484371E0,6.3100684E-1,1.6226577E0,1.9378403E-2,5.8537316E-1,1.8453404E-2,-5.1529245E-5,1.2842141E0,-1.5807917E-2,2.4484566E-1,1.9094018E0,-1.4951887E-2,-6.328136E-1,7.29572E-1,-1.2676477E0,3.4070317E-2,-1.3136174E-2,2.0661935E-2,1.0629276E0,-8.4134005E-2,-1.8202718E-2,-7.952581E-1,2.185402E-3,-1.7194534E-2,1.610282E-2,-1.6506007E-2,-1.3671455E-2,1.8575778E-2,1.331473E0,-9.10056E-1,2.148113E-3,1.4089142E0,-4.654531E-1,1.1740697E-2,1.9201519E-2,6.5345997E-3,-1.5335321E0,1.2940907E-1,9.7555166E-1,1.1042475E-1,-1.4914588E0,-0E0,1.3597354E-1,-6.611632E-1,5.131912E-1,-9.714804E-3,1.3963077E0,-3.983293E-2,-7.102595E-1,1.8210529E-1,3.5843134E-1,-1.6978128E-2,1.6982812E-2,-2.7963894E-3,-1.5807917E-2,4.529936E-3,2.1481102E-3,1.5738558E-2,5.4423218E-3,-1.1258514E-2,-1.8844217E-2,-4.3291706E-1,8.2057965E-1,-1.5363336E0,1.1558014E0,1.4092453E-3,-8.145719E-1,4.6553797E-1,-2.1854027E-3,-1.6808888E-2,3.367186E-1,-6.0337704E-1,-1.1911426E-2,2.2153636E-3,-4.398572E-3,1.202144E-2,1.097059E0,1.8140553E-2,-1.1787574E-2,2.1677524E-1,2.1854038E-3,-1.0349158E-2,-5.620157E-1,4.0743342E-1,8.869692E-3,-1.0928633E-2,3.1876372E-4,-1.2398597E-2,1.1045692E-2,-1.5944347E-2,-1.7988557E-2,9.2943985E-4,9.323628E-3,1.6069066E-2,-2.6115323E-3,1.1740697E-2,5.5781118E-5,-1.6662678E-2,4.8588455E-4,9.428097E-3,1.4197549E-3,1.0479348E-2,-9.92236E-3,1.8162921E-3,1.2736611E-2,-0E0,8.127779E-3,-3.9001608E-3,2.185404E-3,-1.0928633E-2,7.794758E-3,-3.4491213E-3],"categories":[],"categories_nodes":[],"categories_segments":[],"categories_sizes":[],"default_left":[false,false,true,true,true,true,false,true,true,false,true,false,false,false,true,false,true,true,true,false,true,false,true,false,false,true,true,false,true,true,false,false,false,false,false,false,true,false,true,true,true,true,true,false,true,false,false,false,false,true,true,true,false,false,false,false,false,false,true,true,true,false,false,true,false,false,false,false,true,false,false,false,false,true,true,false,true,true,false,false,true,false,false,false,false,false,false,true,false,false,true,true,false,false,false,true,true,false,true,false,false,true,true,false,false,true,true,false,false,true,false,false,false,false,false,false,false,false,false,false,false,true,true,true,true,false,true,false,false,true,true,false,false,false,false,true,false,false,true,false,false,true,false,false,false,false,false,false,false,false,false,false,false,false,false,false,false,false,false,false,false,false,false,false,false,false,false,false,false,false,false],"id":3,"left_children":[1,3,5,7,9,11,13,15,17,19,21,23,-1,25,27,-1,29,31,33,-1,35,37,39,-1,-1,41,43,-1,45,47,-1,-1,49,-1,51,-1,53,-1,55,57,59,61,63,-1,65,-1,-1,-1,67,69,71,73,-1,75,-1,77,-1,-1,79,81,83,85,-1,87,-1,-1,89,-1,91,93,-1,95,97,99,101,-1,103,105,107,-1,109,-1,-1,-1,-1,-1,-1,111,113,-1,115,117,-1,-1,-1,119,121,123,125,127,-1,129,131,133,-1,135,137,139,141,143,-1,-1,-1,-1,-1,-1,-1,-1,-1,-1,145,147,149,151,153,155,157,-1,-1,159,161,-1,-1,-1,-1,163,-1,-1,165,-1,-1,167,169,-1,-1,-1,-1,-1,-1,-1,-1,-1,-1,-1,-1,-1,-1,-1,-1,-1,-1,-1,-1,-1,-1,-1,-1,-1,-1,-1,-1],"loss_changes":[8.0178506E3,7.7857007E2,3.4585938E1,8.509894E2,1.3308472E2,7.235736E1,1.3726074E1,2.1889404E1,2.8961536E2,4.1640625E0,1.5164542E2,2.2456352E1,0E0,2.3977002E2,1.4987793E0,0E0,2.392785E1,3.0464737E2,1.638287E2,0E0,1.1367188E0,1.1273491E2,7.747064E1,0E0,0E0,1.3136108E1,6.571576E1,0E0,2.5287018E0,8.710865E0,0E0,0E0,4.0108356E2,0E0,4.2734367E1,0E0,1.5482567E1,0E0,4.5282234E1,3.0928345E0,2.8324589E1,1.6604004E0,1.4482964E1,0E0,2.7929173E0,0E0,0E0,0E0,1.0313492E1,4.4712463E1,1.647502E2,1.2383965E1,0E0,3.7539077E0,0E0,1.6704624E1,0E0,0E0,5.7085266E0,4.778269E0,4.7318344E1,4.5175507E1,0E0,2.435233E1,0E0,0E0,1.0637455E0,0E0,5.825691E0,1.1060181E0,0E0,1.3143256E2,2.5129532E1,2.835968E0,2.0735235E0,0E0,4.407036E0,1.8705975E1,3.0878897E0,0E0,1.4659657E1,0E0,0E0,0E0,0E0,0E0,0E0,8.891918E0,7.570584E0,0E0,1.4338245E0,4.1129746E0,0E0,0E0,0E0,3.3050858E1,1.2152374E2,2.0799774E1,1.6226213E1,1.6812611E0,0E0,3.9506507E0,2.0181115E0,4.467953E0,0E0,2.8829727E0,3.981387E0,1.8843975E0,2.4504023E0,6.146066E0,0E0,0E0,0E0,0E0,0E0,0E0,0E0,0E0,0E0,0E0,8.477434E0,5.284025E1,1.3418228E1,8.577942E0,6.3102493E0,9.61173E0,7.0179844E0,0E0,0E0,2.6904552E0,1.935374E0,0E0,0E0,0E0,0E0,4.890486E0,0E0,0E0,4.3852053E0,0E0,0E0,1.6889337E0,3.2775445E0,0E0,0E0,0E0,0E0,0E0,0E0,0E0,0E0,0E0,0E0,0E0,0E0,0E0,0E0,0E0,0E0,0E0,0E0,0E0,0E0,0E0,0E0,0E0,0E0,0E0,0E0,0E0,0E0],"parents":[2147483647,0,0,1,1,2,2,3,3,4,4,5,5,6,6,7,7,8,8,9,9,10,10,11,11,13,13,14,14,16,16,17,17,18,18,20,20,21,21,22,22,25,25,26,26,28,28,29,29,32,32,34,34,36,36,38,38,39,39,40,40,41,41,42,42,44,44,48,48,49,49,50,50,51,51,53,53,55,55,58,58,59,59,60,60,61,61,63,63,66,66,68,68,69,69,71,71,72,72,73,73,74,74,76,76,77,77,78,78,80,80,87,87,88,88,90,90,91,91,95,95,96,96,97,97,98,98,99,99,101,101,102,102,103,103,105,105,106,106,107,107,108,108,109,109,120,120,121,121,122,122,123,123,124,124,125,125,126,126,129,129,130,130,135,135,138,138,141,141,142,142],"right_children":[2,4,6,8,10,12,14,16,18,20,22,24,-1,26,28,-1,30,32,34,-1,36,38,40,-1,-1,42,44,-1,46,48,-1,-1,50,-1,52,-1,54,-1,56,58,60,62,64,-1,66,-1,-1,-1,68,70,72,74,-1,76,-1,78,-1,-1,80,82,84,86,-1,88,-1,-1,90,-1,92,94,-1,96,98,100,102,-1,104,106,108,-1,110,-1,-1,-1,-1,-1,-1,112,114,-1,116,118,-1,-1,-1,120,122,124,126,128,-1,130,132,134,-1,136,138,140,142,144,-1,-1,-1,-1,-1,-1,-1,-1,-1,-1,146,148,150,152,154,156,158,-1,-1,160,162,-1,-1,-1,-1,164,-1,-1,166,-1,-1,168,170,-1,-1,-1,-1,-1,-1,-1,-1,-1,-1,-1,-1,-1,-1,-1,-1,-1,-1,-1,-1,-1,-1,-1,-1,-1,-1,-1,-1],"split_conditions":[2.3827E2,2.392E1,2.6346E2,6.67E0,1.0516E2,7E0,6.9163E2,6.3E0,1.1E1,2.609E1,2E0,2E0,-1.72584E-2,9E0,1.1906E3,-1.8835293E-2,1E1,2E0,1.3E1,-1.40937185E-2,9.737E1,1E0,2.1699E2,-1.3071901E-2,1.673551E-2,5E0,6.1774E2,1.915313E-2,1.74625E5,4E0,-1.820272E-2,-1.9064985E-2,4E0,-1.9231886E-2,9.92E0,-1.9344535E-2,2E0,-1.8723045E-2,1.5467E2,2.0066E2,6E0,2E0,6.1774E2,-1.7840525E-2,1.2218E5,4.3538315E-3,1.5646268E-2,1.0225846E-2,9E0,1.831E1,1.718E1,8.29E0,1.641455E-2,1E0,-1.8906703E-2,5.1E1,-1.7126786E-2,-1.9124098E-2,6E0,1.2234981E1,7E0,3.4064E2,1.9378403E-2,7E0,1.8453404E-2,-5.1529245E-5,3.8E1,-1.5807917E-2,2.66248E5,1.58E1,-1.4951887E-2,9E0,1E0,2.18E2,8.61799E5,-1.3136174E-2,5.1E1,1E0,2.4933731E1,-1.8202718E-2,7E0,2.185402E-3,-1.7194534E-2,1.610282E-2,-1.6506007E-2,-1.3671455E-2,1.8575778E-2,1E0,5.3841E2,2.148113E-3,4E1,1.40195E5,1.1740697E-2,1.9201519E-2,6.5345997E-3,1.5E1,1E1,5.1E1,7E0,1.2218E5,-0E0,9.460958E1,2.936116E6,3E0,-9.714804E-3,7.2021805E1,8.465366E0,7.5E1,1.1118E2,1E0,-1.6978128E-2,1.6982812E-2,-2.7963894E-3,-1.5807917E-2,4.529936E-3,2.1481102E-3,1.5738558E-2,5.4423218E-3,-1.1258514E-2,-1.8844217E-2,1E0,1.034E1,1.58E1,1E1,8.5E1,6E0,4.7E1,-2.1854027E-3,-1.6808888E-2,7.492245E1,3.32386E5,-1.1911426E-2,2.2153636E-3,-4.398572E-3,1.202144E-2,4.7E1,1.8140553E-2,-1.1787574E-2,4.952772E1,2.1854038E-3,-1.0349158E-2,5.5E1,6.7E1,8.869692E-3,-1.0928633E-2,3.1876372E-4,-1.2398597E-2,1.1045692E-2,-1.5944347E-2,-1.7988557E-2,9.2943985E-4,9.323628E-3,1.6069066E-2,-2.6115323E-3,1.1740697E-2,5.5781118E-5,-1.6662678E-2,4.8588455E-4,9.428097E-3,1.4197549E-3,1.0479348E-2,-9.92236E-3,1.8162921E-3,1.2736611E-2,-0E0,8.127779E-3,-3.9001608E-3,2.185404E-3,-1.0928633E-2,7.794758E-3,-3.4491213E-3],"split_indices":[3,3,3,3,3,2,3,3,2,3,2,2,0,2,3,0,2,2,2,0,3,2,3,0,0,2,3,0,1,2,0,0,2,0,3,0,2,0,3,3,2,2,3,0,1,0,0,0,2,3,3,3,0,2,0,6,0,0,2,7,2,3,0,2,0,0,4,0,1,3,0,2,0,8,1,0,6,0,7,0,2,0,0,0,0,0,0,0,3,0,8,1,0,0,0,3,2,6,2,1,0,7,1,5,0,7,7,4,3,0,0,0,0,0,0,0,0,0,0,0,0,3,3,2,6,2,6,0,0,7,1,0,0,0,0,6,0,0,7,0,0,6,6,0,0,0,0,0,0,0,0,0,0,0,0,0,0,0,0,0,0,0,0,0,0,0,0,0,0,0,0],"split_type":[0,0,0,0,0,0,0,0,0,0,0,0,0,0,0,0,0,0,0,0,0,0,0,0,0,0,0,0,0,0,0,0,0,0,0,0,0,0,0,0,0,0,0,0,0,0,0,0,0,0,0,0,0,0,0,0,0,0,0,0,0,0,0,0,0,0,0,0,0,0,0,0,0,0,0,0,0,0,0,0,0,0,0,0,0,0,0,0,0,0,0,0,0,0,0,0,0,0,0,0,0,0,0,0,0,0,0,0,0,0,0,0,0,0,0,0,0,0,0,0,0,0,0,0,0,0,0,0,0,0,0,0,0,0,0,0,0,0,0,0,0,0,0,0,0,0,0,0,0,0,0,0,0,0,0,0,0,0,0,0,0,0,0,0,0,0,0,0,0,0,0],"sum_hessian":[3.8260176E3,2.3165347E3,1.5094828E3,1.0910283E3,1.2255063E3,4.472093E1,1.4647618E3,3.5871088E2,7.3231744E2,9.11475E2,3.140314E2,3.6976303E1,7.7446265E0,5.527884E2,9.1197345E2,3.2872708E2,2.9983786E1,5.836666E2,1.4865083E2,2.9984825E1,8.814902E2,9.9701744E1,2.1432965E2,1.9992106E0,3.4977093E1,5.1830945E2,3.447895E1,8.967303E2,1.5243155E1,1.5494991E1,1.4488794E1,5.1706066E1,5.319606E2,9.766551E1,5.0985317E1,8.367725E2,4.4717663E1,2.5978722E1,7.372302E1,1.8659647E2,2.7733175E1,4.8008398E2,3.8225456E1,2.3232718E1,1.1246232E1,3.4998624E0,1.1743292E1,4.2489667E0,1.1246025E1,1.770999E2,3.548607E2,3.5994747E1,1.4990569E1,8.997764E0,3.57199E1,6.6477974E1,7.24505E0,1.5961345E2,2.6983025E1,8.744825E0,1.898835E1,5.970332E1,4.2038068E2,1.9740156E1,1.84853E1,1.9999169E0,9.246315E0,4.2475343E0,6.998491E0,1.7385158E2,3.2483158E0,1.9015062E2,1.6471007E2,8.995878E0,2.6998869E1,1.9993849E0,6.9983788E0,4.973015E1,1.6747824E1,1.4488794E1,1.249423E1,1.2499872E0,7.494838E0,1.3491834E1,5.4965167E0,3.998264E0,5.5705055E1,1.3242729E1,6.4974275E0,1.249916E0,7.996399E0,4.2493687E0,2.7491221E0,1.7185178E2,1.9998012E0,8.669326E1,1.0345736E2,1.1746644E2,4.724363E1,7.495878E0,1.5E0,2.4249012E1,2.7498572E0,4.9993134E0,1.9990653E0,3.7981583E1,1.1748566E1,4.499179E0,1.2248644E1,5.748758E0,6.7454724E0,1.0742774E1,2.499955E0,4.2475343E0,2.2498932E0,1.2499157E0,6.7464833E0,1.7498778E0,2.499491E0,6.519586E1,2.14974E1,7.347682E1,2.9980537E1,9.896756E1,1.8498873E1,1.2746858E1,3.4496773E1,1.2499864E0,6.245892E0,1.9499243E1,4.7497687E0,1.4998841E0,1.249973E0,2.2493203E0,2.749993E0,2.4242136E1,1.3739448E1,1.4995196E0,1.0249046E1,1.2499863E0,3.2491927E0,2.4996428E0,9.7490015E0,4.499101E0,1.2496567E0,1.4249996E1,7.2474036E0,6.623111E1,7.2457094E0,2.5730547E1,4.2499914E0,6.8236115E1,3.073145E1,1.5749751E1,2.7491221E0,6.9997864E0,5.7470713E0,1.899999E1,1.5496782E1,1.6249481E1,3.2497609E0,2.9998064E0,1.7499622E0,2.0742136E1,3.5E0,4.999232E0,5.2498145E0,1.2499862E0,1.2496567E0,6.49908E0,3.2499213E0],"tree_param":{"num_deleted":"0","num_feature":"9","num_nodes":"171","size_leaf_vector":"0"}},{"base_weights":[5.0859475E-3,-1.152338E0,1.7810516E0,-5.429238E-1,-1.6940559E0,8.921792E-1,1.8075665E0,-1.7907263E0,6.979659E-2,-1.8864211E0,-1.1315646E0,1.4681836E0,-1.7113606E-2,1.6691992E0,1.8895167E0,-1.8659305E-2,-9.327776E-1,3.8441667E-1,-1.1599358E0,-1.1987381E0,-1.8965766E-2,-1.20273806E-1,-1.5993617E0,-1.2987398E-2,1.6580833E-2,1.8374387E0,-8.399327E-1,1.8974235E-2,1.3362976E0,-5.8171798E-2,-1.8042443E-2,-1.889E-2,6.084702E-1,-1.9053979E-2,2.766126E-1,-1.4574026E-2,-2.7942702E-1,-1.855395E-2,5.075974E-1,-1.8278264E0,-5.231063E-2,1.8843728E0,1.2150517E0,-1.7679106E-2,1.0643798E0,4.320072E-3,1.5508329E-2,1.0144598E-2,-5.132218E-1,1.8217554E0,-2.5293021E-4,-3.142691E-1,1.6268004E-2,3.6037208E-3,-8.758548E-3,7.695661E-1,-1.6984096E-2,-1.894635E-2,-1.379088E0,-1.4360777E0,6.249551E-1,1.6074564E0,1.9197932E-2,5.798707E-1,1.8288888E-2,-5.1186697E-5,1.2736872E0,-1.5685616E-2,2.4317186E-1,1.8916812E0,-1.4842088E-2,-6.2701243E-1,7.225783E-1,-1.257269E0,3.3519812E-2,1.0530735E0,-8.400863E-2,-1.8042427E-2,-7.8897226E-1,2.1732731E-3,-1.7050765E-2,1.5959783E-2,-1.6373076E-2,-1.35657005E-2,1.8404441E-2,1.3196707E0,-9.0269715E-1,2.1361995E-3,1.3972598E0,-4.619456E-1,1.1656702E-2,1.902307E-2,6.4914185E-3,-1.5193013E0,1.2794384E-1,9.662972E-1,1.0919301E-1,-1.4793298E0,8.3446494E-10,6.5541193E-3,-8.207241E-2,1.3836368E0,-4.0031113E-2,-7.047222E-1,1.7996654E-1,3.5458913E-1,-1.6837804E-2,1.6835377E-2,-2.7764451E-3,-1.5685616E-2,4.4986773E-3,2.1361962E-3,1.560724E-2,5.407736E-3,-1.11794425E-2,-1.8670289E-2,-4.2916322E-1,8.1250155E-1,-1.5222527E0,1.1447814E0,1.8637677E-3,-8.077847E-1,4.6119413E-1,-2.1732713E-3,-1.6671235E-2,-1.0606655E-2,6.4548805E-2,1.086852E0,1.7981298E-2,-1.1718591E-2,2.1499729E-1,2.1732731E-3,-1.0271519E-2,-5.5893797E-1,4.0379268E-1,8.79814E-3,-1.0869202E-2,3.1578515E-4,-1.22926105E-2,1.093923E-2,-1.581054E-2,-1.7825319E-2,9.219176E-4,9.2331525E-3,1.5920553E-2,-2.5870039E-3,1.1656703E-2,-1.2377956E-2,6.6847373E-3,4.812691E-4,9.340924E-3,-6.0494924E-3,3.2049366E-3,1.261859E-2,-0E0,8.060838E-3,-3.867487E-3,2.1732731E-3,-1.0869205E-2,7.72793E-3,-3.4228128E-3],"categories":[],"categories_nodes":[],"categories_segments":[],"categories_sizes":[],"default_left":[false,false,false,true,true,true,false,false,true,true,true,false,false,true,true,false,false,true,true,true,false,true,false,false,false,true,true,false,false,true,false,false,true,false,true,false,true,false,true,true,false,false,false,false,true,false,false,false,false,false,true,false,false,false,false,true,false,false,false,false,false,true,false,true,false,false,true,false,true,true,false,false,true,false,false,true,false,false,true,false,false,false,false,false,false,false,false,false,true,true,false,false,false,true,true,true,true,true,false,false,false,true,false,true,false,false,false,false,false,false,false,false,false,false,false,false,false,true,true,false,false,true,true,false,false,false,false,true,false,false,false,false,false,false,false,false,false,false,false,false,false,false,false,false,false,false,false,false,false,false,false,false,false,false,false,false,false,false,false,false,false],"id":4,"left_children":[1,3,5,7,9,11,13,15,17,19,21,23,-1,25,27,-1,29,31,33,35,-1,37,39,-1,-1,41,43,-1,45,47,-1,-1,49,-1,51,-1,53,-1,55,57,59,61,63,-1,65,-1,-1,-1,67,69,71,73,-1,-1,-1,75,-1,-1,77,79,81,83,-1,85,-1,-1,87,-1,89,91,-1,93,95,97,99,101,103,-1,105,-1,-1,-1,-1,-1,-1,107,109,-1,111,113,-1,-1,-1,115,117,119,121,123,-1,-1,125,127,129,131,133,135,-1,-1,-1,-1,-1,-1,-1,-1,-1,-1,137,139,141,143,145,147,149,-1,-1,-1,151,153,-1,-1,155,-1,-1,157,159,-1,-1,-1,-1,-1,-1,-1,-1,-1,-1,-1,-1,-1,-1,-1,-1,-1,-1,-1,-1,-1,-1,-1,-1,-1,-1],"loss_changes":[7.8639976E3,7.637388E2,3.3964355E1,8.346202E2,1.304961E2,7.1044846E1,1.3456055E1,2.1454346E1,2.8403802E2,4.0949707E0,1.487637E2,2.2098137E1,0E0,2.3516858E2,1.4555664E0,0E0,2.350118E1,2.9883014E2,1.6070633E2,3.3946457E0,0E0,1.10609505E2,7.596619E1,0E0,0E0,1.2870239E1,6.4550415E1,0E0,2.4802265E0,8.570021E0,0E0,0E0,3.9345837E2,0E0,4.1976337E1,0E0,2.1274276E0,0E0,4.4477955E1,3.0076904E0,2.7813578E1,1.6296387E0,1.4226116E1,0E0,2.747243E0,0E0,0E0,0E0,1.015446E1,4.3953125E1,1.6162459E2,1.2173832E1,0E0,0E0,0E0,1.6413727E1,0E0,0E0,5.5939484E0,4.7029533E0,4.650223E1,4.4392746E1,0E0,2.3930923E1,0E0,0E0,1.0433598E0,0E0,5.7405286E0,1.0722046E0,0E0,1.2890997E2,2.4662514E1,2.789874E0,2.0664582E0,1.8380768E1,3.0345852E0,0E0,1.4400821E1,0E0,0E0,0E0,0E0,0E0,0E0,8.742228E0,7.4562545E0,0E0,1.4066944E0,4.057208E0,0E0,0E0,0E0,3.2424377E1,1.19200905E2,2.0385818E1,1.5942876E1,1.6504345E0,0E0,0E0,3.583558E0,2.8393097E0,3.9314823E0,1.8579266E0,2.4166632E0,6.0652065E0,0E0,0E0,0E0,0E0,0E0,0E0,0E0,0E0,0E0,0E0,8.331493E0,5.1885094E1,1.3176338E1,8.429977E0,6.214258E0,9.552429E0,6.888463E0,0E0,0E0,0E0,4.006312E0,4.800089E0,0E0,0E0,4.3125987E0,0E0,0E0,1.6704494E0,3.2235143E0,0E0,0E0,0E0,0E0,0E0,0E0,0E0,0E0,0E0,0E0,0E0,0E0,0E0,0E0,0E0,0E0,0E0,0E0,0E0,0E0,0E0,0E0,0E0,0E0,0E0,0E0],"parents":[2147483647,0,0,1,1,2,2,3,3,4,4,5,5,6,6,7,7,8,8,9,9,10,10,11,11,13,13,14,14,16,16,17,17,18,18,19,19,21,21,22,22,25,25,26,26,28,28,29,29,32,32,34,34,36,36,38,38,39,39,40,40,41,41,42,42,44,44,48,48,49,49,50,50,51,51,55,55,58,58,59,59,60,60,61,61,63,63,66,66,68,68,69,69,71,71,72,72,73,73,74,74,75,75,76,76,78,78,85,85,86,86,88,88,89,89,93,93,94,94,95,95,96,96,97,97,100,100,101,101,102,102,103,103,104,104,105,105,116,116,117,117,118,118,119,119,120,120,121,121,122,122,126,126,127,127,130,130,133,133,134,134],"right_children":[2,4,6,8,10,12,14,16,18,20,22,24,-1,26,28,-1,30,32,34,36,-1,38,40,-1,-1,42,44,-1,46,48,-1,-1,50,-1,52,-1,54,-1,56,58,60,62,64,-1,66,-1,-1,-1,68,70,72,74,-1,-1,-1,76,-1,-1,78,80,82,84,-1,86,-1,-1,88,-1,90,92,-1,94,96,98,100,102,104,-1,106,-1,-1,-1,-1,-1,-1,108,110,-1,112,114,-1,-1,-1,116,118,120,122,124,-1,-1,126,128,130,132,134,136,-1,-1,-1,-1,-1,-1,-1,-1,-1,-1,138,140,142,144,146,148,150,-1,-1,-1,152,154,-1,-1,156,-1,-1,158,160,-1,-1,-1,-1,-1,-1,-1,-1,-1,-1,-1,-1,-1,-1,-1,-1,-1,-1,-1,-1,-1,-1,-1,-1,-1,-1],"split_conditions":[2.3827E2,2.392E1,2.6346E2,6.67E0,1.0516E2,7E0,6.9163E2,6.3E0,1.1E1,2.502E1,2E0,2E0,-1.7113606E-2,9E0,1.1906E3,-1.8659305E-2,1E1,2E0,1.3E1,7.287329E1,-1.8965766E-2,1E0,2.1699E2,-1.2987398E-2,1.6580833E-2,5E0,6.1774E2,1.8974235E-2,1.74625E5,4E0,-1.8042443E-2,-1.889E-2,4E0,-1.9053979E-2,9.92E0,-1.4574026E-2,8E0,-1.855395E-2,1.5467E2,2.0066E2,6E0,2E0,6.1774E2,-1.7679106E-2,1.2218E5,4.320072E-3,1.5508329E-2,1.0144598E-2,9E0,1.831E1,1.718E1,8.29E0,1.6268004E-2,3.6037208E-3,-8.758548E-3,5.1E1,-1.6984096E-2,-1.894635E-2,6E0,1.2234981E1,7E0,3.4064E2,1.9197932E-2,7E0,1.8288888E-2,-5.1186697E-5,3.8E1,-1.5685616E-2,2.66248E5,1.58E1,-1.4842088E-2,9E0,1E0,2.18E2,1.30759E5,1E0,2.4933731E1,-1.8042427E-2,7E0,2.1732731E-3,-1.7050765E-2,1.5959783E-2,-1.6373076E-2,-1.35657005E-2,1.8404441E-2,1E0,5.3841E2,2.1361995E-3,4E1,1.09E2,1.1656702E-2,1.902307E-2,6.4914185E-3,1.5E1,1E1,5.1E1,7E0,1.2218E5,8.3446494E-10,6.5541193E-3,1.40195E5,7.2021805E1,8.465366E0,7.5E1,1.1118E2,1E0,-1.6837804E-2,1.6835377E-2,-2.7764451E-3,-1.5685616E-2,4.4986773E-3,2.1361962E-3,1.560724E-2,5.407736E-3,-1.11794425E-2,-1.8670289E-2,1E0,1.034E1,1.58E1,1E1,8.5E1,5.9E1,4.7E1,-2.1732713E-3,-1.6671235E-2,-1.0606655E-2,3.1E1,4.7E1,1.7981298E-2,-1.1718591E-2,4.952772E1,2.1732731E-3,-1.0271519E-2,5.5E1,6.7E1,8.79814E-3,-1.0869202E-2,3.1578515E-4,-1.22926105E-2,1.093923E-2,-1.581054E-2,-1.7825319E-2,9.219176E-4,9.2331525E-3,1.5920553E-2,-2.5870039E-3,1.1656703E-2,-1.2377956E-2,6.6847373E-3,4.812691E-4,9.340924E-3,-6.0494924E-3,3.2049366E-3,1.261859E-2,-0E0,8.060838E-3,-3.867487E-3,2.1732731E-3,-1.0869205E-2,7.72793E-3,-3.4228128E-3],"split_indices":[3,3,3,3,3,2,3,3,2,3,2,2,0,2,3,0,2,2,2,7,0,2,3,0,0,2,3,0,1,2,0,0,2,0,3,0,2,0,3,3,2,2,3,0,1,0,0,0,2,3,3,3,0,0,0,6,0,0,2,7,2,3,0,2,0,0,4,0,1,3,0,2,0,8,1,0,7,0,2,0,0,0,0,0,0,0,3,0,8,4,0,0,0,3,2,6,2,1,0,0,1,7,7,4,3,0,0,0,0,0,0,0,0,0,0,0,0,3,3,2,6,6,6,0,0,0,6,6,0,0,7,0,0,6,6,0,0,0,0,0,0,0,0,0,0,0,0,0,0,0,0,0,0,0,0,0,0,0,0,0,0],"split_type":[0,0,0,0,0,0,0,0,0,0,0,0,0,0,0,0,0,0,0,0,0,0,0,0,0,0,0,0,0,0,0,0,0,0,0,0,0,0,0,0,0,0,0,0,0,0,0,0,0,0,0,0,0,0,0,0,0,0,0,0,0,0,0,0,0,0,0,0,0,0,0,0,0,0,0,0,0,0,0,0,0,0,0,0,0,0,0,0,0,0,0,0,0,0,0,0,0,0,0,0,0,0,0,0,0,0,0,0,0,0,0,0,0,0,0,0,0,0,0,0,0,0,0,0,0,0,0,0,0,0,0,0,0,0,0,0,0,0,0,0,0,0,0,0,0,0,0,0,0,0,0,0,0,0,0,0,0,0,0,0,0],"sum_hessian":[3.8237495E3,2.31523E3,1.5085195E3,1.0904797E3,1.2247502E3,4.469882E1,1.4638207E3,3.5849124E2,7.3198846E2,9.108851E2,3.1386514E2,3.6958286E1,7.7405314E0,5.524375E2,9.113832E2,3.2851978E2,2.997147E1,5.8341296E2,1.4857549E2,1.4988203E1,8.9589685E2,9.9664986E1,2.1420016E2,1.9986063E0,3.495968E1,5.1797455E2,3.4462936E1,8.9614526E2,1.5237942E1,1.5491211E1,1.4480259E1,5.1672615E1,5.3174036E2,9.760129E1,5.0974205E1,1.1240241E1,3.7479618E0,2.5962526E1,7.370246E1,1.864798E2,2.7720364E1,4.7976776E2,3.8206776E1,2.3219584E1,1.1243353E1,3.4997575E0,1.1738184E1,4.2481794E0,1.12430315E1,1.7698581E2,3.5475455E2,3.599081E1,1.4983393E1,1.9991833E0,1.7487785E0,6.646118E1,7.241278E0,1.5950964E2,2.6970152E1,8.74088E0,1.8979483E1,5.966782E1,4.2009995E2,1.973266E1,1.8474115E1,1.9999173E0,9.243436E0,4.2456517E0,6.99738E0,1.7373878E2,3.2470303E0,1.9007501E2,1.6467953E2,8.992737E0,2.6998074E1,4.9715042E1,1.6746141E1,1.4480267E1,1.2489885E1,1.2499757E0,7.4909043E0,1.3485619E1,5.4938645E0,3.9969397E0,5.567088E1,1.323719E1,6.4954705E0,1.2498969E0,7.993539E0,4.248929E0,2.7484508E0,1.7173914E2,1.9996516E0,8.6650116E1,1.034249E2,1.174409E2,4.7238632E1,7.4927363E0,1.5000004E0,3.4996643E0,2.349841E1,3.796757E1,1.174747E1,4.498552E0,1.224759E1,5.747864E0,6.7420216E0,1.0737269E1,2.4999206E0,4.2456517E0,2.2498188E0,1.2498965E0,6.7436423E0,1.7498555E0,2.4990735E0,6.515469E1,2.1495419E1,7.345917E1,2.996573E1,9.89429E1,1.8498009E1,1.2744317E1,3.4494316E1,1.2499757E0,6.2427607E0,2.2496347E0,2.1248774E1,2.4236156E1,1.3731416E1,1.4991516E0,1.0248319E1,1.2499758E0,3.248576E0,2.4993687E0,9.748221E0,4.49847E0,1.2493937E0,1.4249994E1,7.2454243E0,6.621673E1,7.2424393E0,2.5715746E1,4.249985E0,6.822556E1,3.0717335E1,1.5749558E1,2.74845E0,9.994583E0,2.7497342E0,1.8999983E1,1.5494333E1,5.49954E0,1.5749233E1,2.0736156E1,3.5E0,4.9986453E0,5.2496734E0,1.2499757E0,1.249393E0,6.4983788E0,3.2498424E0],"tree_param":{"num_deleted":"0","num_feature":"9","num_nodes":"161","size_leaf_vector":"0"}},{"base_weights":[4.9997554E-3,-1.1417278E0,1.7647226E0,-5.3791916E-1,-1.6785387E0,8.8350624E-1,1.7910142E0,-1.7743005E0,6.906833E-2,-1.8691308E0,-1.1213087E0,1.4544759E0,-1.6972188E-2,1.6539285E0,1.8722049E0,-1.8488081E-2,-9.244919E-1,3.8074437E-1,-1.1492656E0,-1.3822054E-2,-1.8841165E0,-1.1937482E-1,-1.5849133E0,-1.2904157E-2,1.6429765E-2,1.8206477E0,-8.31953E-1,1.8800301E-2,1.3246981E0,-5.758698E-2,-1.7886208E-2,-1.8719787E-2,6.0269606E-1,-1.8881023E-2,2.7373934E-1,-1.89905E-2,-1.5692691E0,-1.8389333E-2,5.0261253E-1,-1.8112811E0,-5.234987E-2,1.8671429E0,1.2041724E0,-1.752172E-2,1.0556754E0,4.2866045E-3,1.537327E-2,1.006441E-2,-5.0905204E-1,1.8050711E0,-2.911918E-4,-3.118658E-1,1.6124722E-2,-3.583989E-1,-1.8564833E-2,7.6227E-1,-1.6844692E-2,-1.8773519E-2,-1.367421E0,-1.4239798E0,6.1903524E-1,1.5926485E0,1.9022554E-2,5.744757E-1,1.812865E-2,-5.084555E-5,1.263348E0,-1.5565789E-2,2.415207E-1,1.8744508E0,-1.4734308E-2,-6.213312E-1,7.1575034E-1,-1.2470831E0,3.293939E-2,-1.2928614E-2,3.679858E-2,1.0433948E0,-8.388243E-2,-1.7886208E-2,-7.828068E-1,2.1612127E-3,-1.6910324E-2,1.581985E-2,-1.624304E-2,-1.3461752E-2,1.8237641E-2,1.3081105E0,-8.954619E-1,2.1243498E-3,1.3858274E0,-4.5848036E-1,1.1573881E-2,1.884959E-2,6.4485604E-3,-1.5054021E0,1.2650485E-1,9.571861E-1,1.08199894E-1,-1.4674482E0,-0E0,1.3401844E-1,-6.564544E-1,5.2523535E-1,-9.528942E-3,1.3712144E0,-4.02254E-2,-6.992501E-1,1.7785348E-1,3.5079566E-1,-1.6700665E-2,1.6691336E-2,-2.7566482E-3,-1.5565789E-2,4.467666E-3,2.124351E-3,1.5478633E-2,5.4188347E-3,-1.1136683E-2,-1.850106E-2,-4.2545202E-1,8.045538E-1,-1.5084951E0,1.1339417E0,2.310483E-3,-8.002859E-1,4.5689937E-1,-2.1612158E-3,-1.653666E-2,3.3294523E-1,-5.98523E-1,-1.1832648E-2,2.2058496E-3,-4.238252E-3,1.2072556E-2,1.076809E0,1.7826073E-2,-1.1650492E-2,2.1323802E-1,2.161213E-3,-1.01948725E-2,-5.558896E-1,4.0019217E-1,8.727436E-3,-1.0810457E-2,3.1283544E-4,-1.2188316E-2,1.0834418E-2,-1.5679546E-2,-1.7666198E-2,9.1445557E-4,9.143929E-3,1.5775297E-2,-2.5627178E-3,1.1573883E-2,1.0999098E-4,-1.6441034E-2,4.7669682E-4,9.254931E-3,1.3974708E-3,1.038828E-2,-9.848253E-3,1.8096096E-3,1.2502595E-2,-0E0,7.994667E-3,-3.835111E-3,2.1612127E-3,-1.0810456E-2,7.661873E-3,-3.3967092E-3],"categories":[],"categories_nodes":[],"categories_segments":[],"categories_sizes":[],"default_left":[false,true,false,false,true,true,true,true,true,false,true,true,false,true,true,false,true,false,true,false,false,false,true,false,false,true,true,false,true,true,false,false,true,false,true,false,true,false,true,true,true,false,true,false,true,false,false,false,false,true,true,true,false,false,false,true,false,false,true,false,false,true,false,false,false,false,true,false,true,true,false,true,false,true,false,false,true,true,true,false,true,false,false,false,false,false,false,true,false,false,false,true,false,false,false,true,true,true,false,true,false,true,true,true,false,true,false,true,true,false,false,false,false,false,false,false,false,false,false,false,true,true,true,true,false,true,true,false,false,true,true,false,false,false,false,true,false,false,false,false,false,false,true,false,false,false,false,false,false,false,false,false,false,false,false,false,false,false,false,false,false,false,false,false,false,false,false,false,false,false,false],"id":5,"left_children":[1,3,5,7,9,11,13,15,17,19,21,23,-1,25,27,-1,29,31,33,-1,35,37,39,-1,-1,41,43,-1,45,47,-1,-1,49,-1,51,-1,53,-1,55,57,59,61,63,-1,65,-1,-1,-1,67,69,71,73,-1,75,-1,77,-1,-1,79,81,83,85,-1,87,-1,-1,89,-1,91,93,-1,95,97,99,101,-1,103,105,107,-1,109,-1,-1,-1,-1,-1,-1,111,113,-1,115,117,-1,-1,-1,119,121,123,125,127,-1,129,131,133,-1,135,137,139,141,143,-1,-1,-1,-1,-1,-1,-1,-1,-1,-1,145,147,149,151,153,155,157,-1,-1,159,161,-1,-1,-1,-1,163,-1,-1,165,-1,-1,167,169,-1,-1,-1,-1,-1,-1,-1,-1,-1,-1,-1,-1,-1,-1,-1,-1,-1,-1,-1,-1,-1,-1,-1,-1,-1,-1,-1,-1],"loss_changes":[7.714274E3,7.493247E2,3.3362793E1,8.1872174E2,1.2798218E2,6.976518E1,1.3193848E1,2.1035156E1,2.7861386E2,4.0444336E0,1.4596811E2,2.1748459E1,0E0,2.306991E2,1.4152832E0,0E0,2.3086536E1,2.931718E2,1.5767538E2,0E0,1.1630859E0,1.0854008E2,7.4506226E1,0E0,0E0,1.2614868E1,6.3414635E1,0E0,2.4334602E0,8.431903E0,0E0,0E0,3.860443E2,0E0,4.1237946E1,0E0,1.5214722E1,0E0,4.369215E1,2.9265747E0,2.7314873E1,1.6002197E0,1.3977108E1,0E0,2.702712E0,0E0,0E0,0E0,9.998935E0,4.321405E1,1.5858575E2,1.1967794E1,0E0,3.7381425E0,0E0,1.612975E1,0E0,0E0,5.4831886E0,4.629719E0,4.570545E1,4.363066E1,0E0,2.3519157E1,0E0,0E0,1.023613E0,0E0,5.6568804E0,1.0404053E0,0E0,1.2645447E2,2.4193428E1,2.7450457E0,2.0389001E0,0E0,4.365575E0,1.8063957E1,2.982283E0,0E0,1.4148429E1,0E0,0E0,0E0,0E0,0E0,0E0,8.596642E0,7.3444815E0,0E0,1.3804398E0,4.043359E0,0E0,0E0,0E0,3.1821426E1,1.16934555E2,1.998233E1,1.5645222E1,1.6206493E0,0E0,3.8783875E0,1.9934356E0,4.3941464E0,0E0,2.7979279E0,3.882361E0,1.8319223E0,2.383451E0,5.985619E0,0E0,0E0,0E0,0E0,0E0,0E0,0E0,0E0,0E0,0E0,8.1887665E0,5.0950954E1,1.2942162E1,8.287842E0,6.119995E0,9.425198E0,6.761763E0,0E0,0E0,2.6502597E0,1.9094396E0,0E0,0E0,0E0,0E0,4.712015E0,0E0,0E0,4.2412963E0,0E0,0E0,1.6522307E0,3.1704578E0,0E0,0E0,0E0,0E0,0E0,0E0,0E0,0E0,0E0,0E0,0E0,0E0,0E0,0E0,0E0,0E0,0E0,0E0,0E0,0E0,0E0,0E0,0E0,0E0,0E0,0E0,0E0,0E0],"parents":[2147483647,0,0,1,1,2,2,3,3,4,4,5,5,6,6,7,7,8,8,9,9,10,10,11,11,13,13,14,14,16,16,17,17,18,18,20,20,21,21,22,22,25,25,26,26,28,28,29,29,32,32,34,34,36,36,38,38,39,39,40,40,41,41,42,42,44,44,48,48,49,49,50,50,51,51,53,53,55,55,58,58,59,59,60,60,61,61,63,63,66,66,68,68,69,69,71,71,72,72,73,73,74,74,76,76,77,77,78,78,80,80,87,87,88,88,90,90,91,91,95,95,96,96,97,97,98,98,99,99,101,101,102,102,103,103,105,105,106,106,107,107,108,108,109,109,120,120,121,121,122,122,123,123,124,124,125,125,126,126,129,129,130,130,135,135,138,138,141,141,142,142],"right_children":[2,4,6,8,10,12,14,16,18,20,22,24,-1,26,28,-1,30,32,34,-1,36,38,40,-1,-1,42,44,-1,46,48,-1,-1,50,-1,52,-1,54,-1,56,58,60,62,64,-1,66,-1,-1,-1,68,70,72,74,-1,76,-1,78,-1,-1,80,82,84,86,-1,88,-1,-1,90,-1,92,94,-1,96,98,100,102,-1,104,106,108,-1,110,-1,-1,-1,-1,-1,-1,112,114,-1,116,118,-1,-1,-1,120,122,124,126,128,-1,130,132,134,-1,136,138,140,142,144,-1,-1,-1,-1,-1,-1,-1,-1,-1,-1,146,148,150,152,154,156,158,-1,-1,160,162,-1,-1,-1,-1,164,-1,-1,166,-1,-1,168,170,-1,-1,-1,-1,-1,-1,-1,-1,-1,-1,-1,-1,-1,-1,-1,-1,-1,-1,-1,-1,-1,-1,-1,-1,-1,-1,-1,-1],"split_conditions":[2.3827E2,2.392E1,2.6346E2,6.67E0,1.0516E2,7E0,6.9163E2,6.3E0,1.1E1,2.609E1,2E0,2E0,-1.6972188E-2,9E0,1.1906E3,-1.8488081E-2,1E1,2E0,1.3E1,-1.3822054E-2,9.737E1,1E0,2.1699E2,-1.2904157E-2,1.6429765E-2,5E0,6.1774E2,1.8800301E-2,1.74625E5,4E0,-1.7886208E-2,-1.8719787E-2,4E0,-1.8881023E-2,9.92E0,-1.89905E-2,2E0,-1.8389333E-2,1.5467E2,2.0066E2,6E0,2E0,6.1774E2,-1.752172E-2,1.2218E5,4.2866045E-3,1.537327E-2,1.006441E-2,9E0,1.831E1,1.718E1,8.29E0,1.6124722E-2,1E0,-1.8564833E-2,5.1E1,-1.6844692E-2,-1.8773519E-2,6E0,1.2234981E1,7E0,3.4064E2,1.9022554E-2,7E0,1.812865E-2,-5.084555E-5,3.8E1,-1.5565789E-2,2.66248E5,1.58E1,-1.4734308E-2,9E0,1E0,2.18E2,8.61799E5,-1.2928614E-2,5.1E1,1E0,2.4933731E1,-1.7886208E-2,7E0,2.1612127E-3,-1.6910324E-2,1.581985E-2,-1.624304E-2,-1.3461752E-2,1.8237641E-2,1E0,5.3841E2,2.1243498E-3,4E1,1.40195E5,1.1573881E-2,1.884959E-2,6.4485604E-3,1.5E1,1E1,5.1E1,7E0,1.2218E5,-0E0,9.460958E1,2.936116E6,3E0,-9.528942E-3,7.2021805E1,8.465366E0,7.5E1,1.1118E2,1E0,-1.6700665E-2,1.6691336E-2,-2.7566482E-3,-1.5565789E-2,4.467666E-3,2.124351E-3,1.5478633E-2,5.4188347E-3,-1.1136683E-2,-1.850106E-2,1E0,1.034E1,1.58E1,1E1,8.5E1,6E0,4.7E1,-2.1612158E-3,-1.653666E-2,7.492245E1,3.32386E5,-1.1832648E-2,2.2058496E-3,-4.238252E-3,1.2072556E-2,4.7E1,1.7826073E-2,-1.1650492E-2,4.952772E1,2.161213E-3,-1.01948725E-2,5.5E1,6.7E1,8.727436E-3,-1.0810457E-2,3.1283544E-4,-1.2188316E-2,1.0834418E-2,-1.5679546E-2,-1.7666198E-2,9.1445557E-4,9.143929E-3,1.5775297E-2,-2.5627178E-3,1.1573883E-2,1.0999098E-4,-1.6441034E-2,4.7669682E-4,9.254931E-3,1.3974708E-3,1.038828E-2,-9.848253E-3,1.8096096E-3,1.2502595E-2,-0E0,7.994667E-3,-3.835111E-3,2.1612127E-3,-1.0810456E-2,7.661873E-3,-3.3967092E-3],"split_indices":[3,3,3,3,3,2,3,3,2,3,2,2,0,2,3,0,2,2,2,0,3,2,3,0,0,2,3,0,1,2,0,0,2,0,3,0,2,0,3,3,2,2,3,0,1,0,0,0,2,3,3,3,0,2,0,6,0,0,2,7,2,3,0,2,0,0,4,0,1,3,0,2,0,8,1,0,6,0,7,0,2,0,0,0,0,0,0,0,3,0,8,1,0,0,0,3,2,6,2,1,0,7,1,5,0,7,7,4,3,0,0,0,0,0,0,0,0,0,0,0,0,3,3,2,6,2,6,0,0,7,1,0,0,0,0,6,0,0,7,0,0,6,6,0,0,0,0,0,0,0,0,0,0,0,0,0,0,0,0,0,0,0,0,0,0,0,0,0,0,0,0],"split_type":[0,0,0,0,0,0,0,0,0,0,0,0,0,0,0,0,0,0,0,0,0,0,0,0,0,0,0,0,0,0,0,0,0,0,0,0,0,0,0,0,0,0,0,0,0,0,0,0,0,0,0,0,0,0,0,0,0,0,0,0,0,0,0,0,0,0,0,0,0,0,0,0,0,0,0,0,0,0,0,0,0,0,0,0,0,0,0,0,0,0,0,0,0,0,0,0,0,0,0,0,0,0,0,0,0,0,0,0,0,0,0,0,0,0,0,0,0,0,0,0,0,0,0,0,0,0,0,0,0,0,0,0,0,0,0,0,0,0,0,0,0,0,0,0,0,0,0,0,0,0,0,0,0,0,0,0,0,0,0,0,0,0,0,0,0,0,0,0,0,0,0],"sum_hessian":[3.8208806E3,2.313581E3,1.5072996E3,1.089785E3,1.223796E3,4.4670788E1,1.4626288E3,3.5821295E2,7.3157214E2,9.101415E2,3.1365454E2,3.693545E1,7.7353363E0,5.5199286E2,9.106359E2,3.2825714E2,2.9955803E1,5.830921E2,1.4848001E2,2.9958208E1,8.801833E2,9.961843E1,2.140361E2,1.9978383E0,3.4937614E1,5.1755023E2,3.44426E1,8.954046E2,1.5231329E1,1.5486348E1,1.4469455E1,5.1630325E1,5.314618E2,9.751995E1,5.096006E1,8.355219E2,4.4661377E1,2.5942032E1,7.36764E1,1.86332E2,2.7704102E1,4.7936713E2,3.8183094E1,2.320293E1,1.123967E1,3.4996202E0,1.1731709E1,4.247179E0,1.1239169E1,1.768413E2,3.546205E2,3.5985764E1,1.4974296E1,8.993486E0,3.566789E1,6.64399E1,7.2364926E0,1.5937817E2,2.6953825E1,8.735877E0,1.8968225E1,5.962285E1,4.197443E2,1.9723154E1,1.845994E1,1.9999175E0,9.239753E0,4.243262E0,6.9959073E0,1.735959E2,3.2453938E0,1.8997923E2,1.6464128E2,8.9887495E0,2.6997013E1,1.9979088E0,6.995578E0,4.9695885E1,1.6744017E1,1.4469456E1,1.2484369E1,1.2499623E0,7.4859147E0,1.3477737E1,5.490488E0,3.9952564E0,5.5627594E1,1.3230167E1,6.4929857E0,1.249875E0,7.9898777E0,4.24831E0,2.7475972E0,1.7159644E2,1.9994591E0,8.6595474E1,1.0338376E2,1.1740856E2,4.7232716E1,7.4887495E0,1.5E0,2.4247448E1,2.7495658E0,4.998162E0,1.997416E0,3.794981E1,1.1746077E1,4.497754E0,1.2246263E1,5.746726E0,6.7376432E0,1.0730291E1,2.499876E0,4.243262E0,2.2497241E0,1.2498746E0,6.740003E0,1.7497163E0,2.4985938E0,6.510257E1,2.1492907E1,7.343679E1,2.9946972E1,9.891165E1,1.8496912E1,1.27415085E1,3.4491207E1,1.249963E0,6.2387867E0,1.9498096E1,4.7493525E0,1.4996275E0,1.2499384E0,2.2482285E0,2.7499332E0,2.4228577E1,1.3721234E1,1.4986825E0,1.0247395E1,1.2499622E0,3.2477918E0,2.4990194E0,9.747243E0,4.497669E0,1.249057E0,1.4249991E1,7.242915E0,6.61985E1,7.2382903E0,2.5696995E1,4.2499766E0,6.821219E1,3.0699465E1,1.5749315E1,2.7475963E0,6.9991603E0,5.742348E0,1.8999979E1,1.5491228E1,1.6248816E1,3.2492805E0,2.9994373E0,1.749915E0,2.0728577E1,3.5E0,4.9979014E0,5.249493E0,1.2499623E0,1.249057E0,6.4974885E0,3.2497547E0],"tree_param":{"num_deleted":"0","num_feature":"9","num_nodes":"171","size_leaf_vector":"0"}},{"base_weights":[4.9055074E-3,-1.1314E0,1.7488344E0,-5.330399E-1,-1.6634588E0,8.750293E-1,1.7749108E0,-1.7583063E0,6.834196E-2,-1.8523488E0,-1.1113002E0,1.441077E0,-1.6834026E-2,1.6390674E0,1.8553654E0,-1.8321447E-2,-9.163754E-1,3.7713128E-1,-1.1388378E0,-1.36957E-2,-1.8672137E0,-1.1849498E-1,-1.5708432E0,-1.2822162E-2,1.6282165E-2,1.8043123E0,-8.24149E-1,1.8631134E-2,1.3133111E0,-5.701054E-2,-1.7733915E-2,-1.8554201E-2,5.970208E-1,-1.8712826E-2,2.709293E-1,-1.8819945E-2,-1.5555589E0,-1.8229064E-2,4.9771073E-1,-1.7951782E0,-5.2390993E-2,1.8503863E0,1.1935403E0,-1.7368222E-2,1.0471109E0,4.2534247E-3,1.5241003E-2,9.985259E-3,-5.049467E-1,1.7888384E0,-3.5902E-4,-3.0946368E-1,1.5984597E-2,-3.5634705E-1,-1.8401789E-2,7.550905E-1,-1.6708463E-2,-1.8605405E-2,-1.3560195E0,-1.4121352E0,6.1324257E-1,1.5782183E0,1.8852038E-2,5.6918514E-1,1.7972533E-2,-5.0506373E-5,1.253191E0,-1.5448362E-2,2.3988993E-1,1.8576905E0,-1.462851E-2,-6.1576456E-1,7.089583E-1,-1.2370836E0,3.240155E-2,-1.2846262E-2,3.622074E-2,1.0338854E0,-8.375569E-2,-1.7733932E-2,-7.7675813E-1,2.1492224E-3,-1.6773101E-2,1.5682917E-2,-1.611579E-2,-1.3359545E-2,1.807521E-2,1.2967849E0,-8.8834786E-1,2.1125749E-3,1.3746101E0,-4.550459E-1,1.1492205E-2,1.8680869E-2,6.406074E-3,-1.4918222E0,1.2509064E-1,9.4821495E-1,1.0699749E-1,-1.4558058E0,-0E0,6.495347E-3,-8.2270406E-2,5.213081E-1,-9.467758E-3,1.3590319E0,-4.0416278E-2,-6.938413E-1,1.7576411E-1,3.4704998E-1,-1.6566606E-2,1.6550578E-2,-2.7369987E-3,-1.5448364E-2,4.4369022E-3,2.112572E-3,1.5352647E-2,5.3844308E-3,-1.10592265E-2,-1.8336346E-2,-4.217833E-1,7.9672897E-1,-1.4950491E0,1.1232773E0,2.7500654E-3,-7.9369277E-1,4.5265296E-1,-2.149219E-3,-1.6405053E-2,-1.0527079E-2,6.315871E-2,-4.2093657E-3,1.1983818E-2,1.0669249E0,1.7674726E-2,-1.1583262E-2,2.1149667E-1,2.1492208E-3,-1.0119192E-2,-5.5287015E-1,3.966281E-1,8.657566E-3,-1.0752373E-2,3.099107E-4,-1.2085683E-2,1.0731153E-2,-1.5551274E-2,-1.7511038E-2,9.0705353E-4,9.055929E-3,1.5633194E-2,-2.5386652E-3,1.1492205E-2,-1.21946605E-2,6.657318E-3,4.7216873E-4,9.170083E-3,-5.9982203E-3,3.1664937E-3,1.2388555E-2,-0E0,7.929241E-3,-3.8030292E-3,2.149221E-3,-1.0752375E-2,7.5965673E-3,-3.370778E-3],"categories":[],"categories_nodes":[],"categories_segments":[],"categories_sizes":[],"default_left":[true,true,true,false,false,true,true,true,true,true,true,false,false,false,true,false,true,false,true,false,true,false,true,false,false,true,true,false,false,false,false,false,false,false,true,false,false,false,true,false,true,false,true,false,true,false,false,false,true,true,true,false,false,true,false,false,false,false,true,true,true,false,false,false,false,false,true,false,false,true,false,false,false,true,true,false,true,true,false,false,true,false,false,false,false,false,false,true,true,false,true,true,false,false,false,true,true,false,true,true,false,false,true,true,false,false,false,true,false,false,false,false,false,false,false,false,false,false,false,false,true,true,true,true,true,true,true,false,false,false,true,false,false,true,false,false,false,false,false,true,false,false,false,false,false,false,false,false,false,false,false,false,false,false,false,false,false,false,false,false,false,false,false,false,false,false,false],"id":6,"left_children":[1,3,5,7,9,11,13,15,17,19,21,23,-1,25,27,-1,29,31,33,-1,35,37,39,-1,-1,41,43,-1,45,47,-1,-1,49,-1,51,-1,53,-1,55,57,59,61,63,-1,65,-1,-1,-1,67,69,71,73,-1,75,-1,77,-1,-1,79,81,83,85,-1,87,-1,-1,89,-1,91,93,-1,95,97,99,101,-1,103,105,107,-1,109,-1,-1,-1,-1,-1,-1,111,113,-1,115,117,-1,-1,-1,119,121,123,125,127,-1,-1,129,131,-1,133,135,137,139,141,-1,-1,-1,-1,-1,-1,-1,-1,-1,-1,143,145,147,149,151,153,155,-1,-1,-1,157,-1,-1,159,-1,-1,161,-1,-1,163,165,-1,-1,-1,-1,-1,-1,-1,-1,-1,-1,-1,-1,-1,-1,-1,-1,-1,-1,-1,-1,-1,-1,-1,-1,-1,-1],"loss_changes":[7.568702E3,7.353562E2,3.278174E1,8.03252E2,1.2556421E2,6.85172E1,1.2939941E1,2.063147E1,2.7331924E2,3.9750977E0,1.4325504E2,2.1406982E1,0E0,2.263562E2,1.378418E0,0E0,2.2683647E1,2.876574E2,1.5473781E2,0E0,1.1274414E0,1.06524704E2,7.308899E1,0E0,0E0,1.2369385E1,6.230744E1,0E0,2.3883286E0,8.296411E0,0E0,0E0,3.788574E2,0E0,4.0516186E1,0E0,1.4916878E1,0E0,4.2924217E1,2.8492432E0,2.6828077E1,1.5723877E0,1.3735607E1,0E0,2.6592827E0,0E0,0E0,0E0,9.846841E0,4.249463E1,1.5560072E2,1.1767112E1,0E0,3.6876028E0,0E0,1.5852505E1,0E0,0E0,5.376091E0,4.5584774E0,4.4927364E1,4.2888397E1,0E0,2.3116753E1,0E0,0E0,1.0044765E0,0E0,5.574682E0,1.010376E0,0E0,1.24063576E2,2.3748009E1,2.7014303E0,2.0346353E0,0E0,4.3057013E0,1.7755219E1,2.9309545E0,0E0,1.39022665E1,0E0,0E0,0E0,0E0,0E0,0E0,8.455004E0,7.235174E0,0E0,1.3550262E0,3.9887886E0,0E0,0E0,0E0,3.1240799E1,1.1472257E2,1.958889E1,1.5373136E1,1.5918598E0,0E0,0E0,3.5236678E0,4.3309264E0,0E0,2.758728E0,3.8340068E0,1.8063729E0,2.3507452E0,5.907278E0,0E0,0E0,0E0,0E0,0E0,0E0,0E0,0E0,0E0,0E0,8.049159E0,5.003702E1,1.271537E1,8.15123E0,6.0274143E0,9.348237E0,6.6377964E0,0E0,0E0,0E0,3.9287956E0,0E0,0E0,4.6261806E0,0E0,0E0,4.1712666E0,0E0,0E0,1.6342726E0,3.118362E0,0E0,0E0,0E0,0E0,0E0,0E0,0E0,0E0,0E0,0E0,0E0,0E0,0E0,0E0,0E0,0E0,0E0,0E0,0E0,0E0,0E0,0E0,0E0,0E0,0E0,0E0],"parents":[2147483647,0,0,1,1,2,2,3,3,4,4,5,5,6,6,7,7,8,8,9,9,10,10,11,11,13,13,14,14,16,16,17,17,18,18,20,20,21,21,22,22,25,25,26,26,28,28,29,29,32,32,34,34,36,36,38,38,39,39,40,40,41,41,42,42,44,44,48,48,49,49,50,50,51,51,53,53,55,55,58,58,59,59,60,60,61,61,63,63,66,66,68,68,69,69,71,71,72,72,73,73,74,74,76,76,77,77,78,78,80,80,87,87,88,88,90,90,91,91,95,95,96,96,97,97,98,98,99,99,102,102,103,103,105,105,106,106,107,107,108,108,109,109,120,120,121,121,122,122,123,123,124,124,125,125,126,126,130,130,133,133,136,136,139,139,140,140],"right_children":[2,4,6,8,10,12,14,16,18,20,22,24,-1,26,28,-1,30,32,34,-1,36,38,40,-1,-1,42,44,-1,46,48,-1,-1,50,-1,52,-1,54,-1,56,58,60,62,64,-1,66,-1,-1,-1,68,70,72,74,-1,76,-1,78,-1,-1,80,82,84,86,-1,88,-1,-1,90,-1,92,94,-1,96,98,100,102,-1,104,106,108,-1,110,-1,-1,-1,-1,-1,-1,112,114,-1,116,118,-1,-1,-1,120,122,124,126,128,-1,-1,130,132,-1,134,136,138,140,142,-1,-1,-1,-1,-1,-1,-1,-1,-1,-1,144,146,148,150,152,154,156,-1,-1,-1,158,-1,-1,160,-1,-1,162,-1,-1,164,166,-1,-1,-1,-1,-1,-1,-1,-1,-1,-1,-1,-1,-1,-1,-1,-1,-1,-1,-1,-1,-1,-1,-1,-1,-1,-1],"split_conditions":[2.3827E2,2.392E1,2.6346E2,6.67E0,1.0516E2,7E0,6.9163E2,6.3E0,1.1E1,2.609E1,2E0,2E0,-1.6834026E-2,9E0,1.1906E3,-1.8321447E-2,1E1,2E0,1.3E1,-1.36957E-2,9.737E1,1E0,2.1699E2,-1.2822162E-2,1.6282165E-2,5E0,6.1774E2,1.8631134E-2,1.74625E5,4E0,-1.7733915E-2,-1.8554201E-2,4E0,-1.8712826E-2,9.92E0,-1.8819945E-2,2E0,-1.8229064E-2,1.5467E2,2.0066E2,6E0,2E0,6.1774E2,-1.7368222E-2,1.2218E5,4.2534247E-3,1.5241003E-2,9.985259E-3,9E0,1.831E1,1.718E1,8.29E0,1.5984597E-2,1E0,-1.8401789E-2,5.1E1,-1.6708463E-2,-1.8605405E-2,6E0,1.2234981E1,7E0,3.4064E2,1.8852038E-2,7E0,1.7972533E-2,-5.0506373E-5,3.8E1,-1.5448362E-2,2.66248E5,1.58E1,-1.462851E-2,9E0,1E0,2.18E2,1.30759E5,-1.2846262E-2,5.1E1,1E0,2.4933731E1,-1.7733932E-2,7E0,2.1492224E-3,-1.6773101E-2,1.5682917E-2,-1.611579E-2,-1.3359545E-2,1.807521E-2,1E0,5.3841E2,2.1125749E-3,4E1,1.40195E5,1.1492205E-2,1.8680869E-2,6.406074E-3,1.5E1,1E1,5.1E1,7E0,1.2218E5,-0E0,6.495347E-3,1.40195E5,3E0,-9.467758E-3,7.2021805E1,8.465366E0,7.5E1,1.1118E2,1E0,-1.6566606E-2,1.6550578E-2,-2.7369987E-3,-1.5448364E-2,4.4369022E-3,2.112572E-3,1.5352647E-2,5.3844308E-3,-1.10592265E-2,-1.8336346E-2,1E0,1.034E1,1.58E1,1E1,8.5E1,5.9E1,4.7E1,-2.149219E-3,-1.6405053E-2,-1.0527079E-2,3.1E1,-4.2093657E-3,1.1983818E-2,4.7E1,1.7674726E-2,-1.1583262E-2,4.952772E1,2.1492208E-3,-1.0119192E-2,5.5E1,6.7E1,8.657566E-3,-1.0752373E-2,3.099107E-4,-1.2085683E-2,1.0731153E-2,-1.5551274E-2,-1.7511038E-2,9.0705353E-4,9.055929E-3,1.5633194E-2,-2.5386652E-3,1.1492205E-2,-1.21946605E-2,6.657318E-3,4.7216873E-4,9.170083E-3,-5.9982203E-3,3.1664937E-3,1.2388555E-2,-0E0,7.929241E-3,-3.8030292E-3,2.149221E-3,-1.0752375E-2,7.5965673E-3,-3.370778E-3],"split_indices":[3,3,3,3,3,2,3,3,2,3,2,2,0,2,3,0,2,2,2,0,3,2,3,0,0,2,3,0,1,2,0,0,2,0,3,0,2,0,3,3,2,2,3,0,1,0,0,0,2,3,3,3,0,2,0,6,0,0,2,7,2,3,0,2,0,0,4,0,1,3,0,2,0,8,1,0,6,0,7,0,2,0,0,0,0,0,0,0,3,0,8,1,0,0,0,3,2,6,2,1,0,0,1,5,0,7,7,4,3,0,0,0,0,0,0,0,0,0,0,0,0,3,3,2,6,6,6,0,0,0,6,0,0,6,0,0,7,0,0,6,6,0,0,0,0,0,0,0,0,0,0,0,0,0,0,0,0,0,0,0,0,0,0,0,0,0,0],"split_type":[0,0,0,0,0,0,0,0,0,0,0,0,0,0,0,0,0,0,0,0,0,0,0,0,0,0,0,0,0,0,0,0,0,0,0,0,0,0,0,0,0,0,0,0,0,0,0,0,0,0,0,0,0,0,0,0,0,0,0,0,0,0,0,0,0,0,0,0,0,0,0,0,0,0,0,0,0,0,0,0,0,0,0,0,0,0,0,0,0,0,0,0,0,0,0,0,0,0,0,0,0,0,0,0,0,0,0,0,0,0,0,0,0,0,0,0,0,0,0,0,0,0,0,0,0,0,0,0,0,0,0,0,0,0,0,0,0,0,0,0,0,0,0,0,0,0,0,0,0,0,0,0,0,0,0,0,0,0,0,0,0,0,0,0,0,0,0],"sum_hessian":[3.8174229E3,2.3115918E3,1.5058309E3,1.0889485E3,1.2226433E3,4.463702E1,1.461194E3,3.5787787E2,7.310706E2,9.0924243E2,3.134009E2,3.6907948E1,7.729072E0,5.514579E2,9.097361E2,3.2794092E2,2.9936956E1,5.827056E2,1.48365E2,2.9941563E1,8.7930084E2,9.9562355E1,2.1383853E2,1.9969064E0,3.491104E1,5.1703973E2,3.441812E1,8.9451276E2,1.5223355E1,1.5480528E1,1.4456429E1,5.1579365E1,5.311263E2,9.742201E1,5.0942997E1,8.346761E2,4.462473E1,2.5917326E1,7.364503E1,1.8615404E2,2.7684502E1,4.788852E2,3.8154545E1,2.3182917E1,1.1235205E1,3.4994514E0,1.1723904E1,4.2459693E0,1.1234558E1,1.766673E2,3.5445898E2,3.5979664E1,1.4963332E1,8.991624E0,3.5633106E1,6.641431E1,7.230721E0,1.5921991E2,2.6934128E1,8.729843E0,1.8954659E1,5.9568687E1,4.193165E2,1.9711683E1,1.8442862E1,1.9999185E0,9.235287E0,4.240377E0,6.9941816E0,1.7342387E2,3.2434185E0,1.8986421E2,1.6459477E2,8.983939E0,2.6995726E1,1.9970242E0,6.9946003E0,4.967279E1,1.6741516E1,1.4456414E1,1.2477714E1,1.2499459E0,7.4798975E0,1.3468241E1,5.4864182E0,3.9932237E0,5.5575462E1,1.3221704E1,6.4899797E0,1.2498502E0,7.9854364E0,4.247616E0,2.7465656E0,1.7142465E2,1.9992263E0,8.6529655E1,1.0333456E2,1.173696E2,4.7225163E1,7.483939E0,1.5E0,3.4992785E0,2.3496447E1,4.9979134E0,1.9966867E0,3.79284E1,1.1744392E1,4.4967904E0,1.2244726E1,5.7453527E0,6.732361E0,1.0721881E1,2.4998226E0,4.2403765E0,2.249603E0,1.2498496E0,6.735587E0,1.7496765E0,2.4979393E0,6.503978E1,2.1489874E1,7.341018E1,2.9924377E1,9.8874016E1,1.8495586E1,1.2737717E1,3.4487446E1,1.249946E0,6.233993E0,2.2491837E0,2.1247263E1,2.2479167E0,2.7499967E0,2.4219435E1,1.3708963E1,1.4981142E0,1.0246278E1,1.249946E0,3.2468443E0,2.4985957E0,9.746131E0,4.4967027E0,1.2486501E0,1.4249987E1,7.239887E0,6.6176895E1,7.233287E0,2.5674412E1,4.2499666E0,6.819608E1,3.0677933E1,1.5749021E1,2.7465656E0,9.988179E0,2.7495375E0,1.899996E1,1.5487486E1,5.498973E0,1.574829E1,2.0719435E1,3.5E0,4.9970026E0,5.249275E0,1.2499461E0,1.2486496E0,6.496415E0,3.2497158E0],"tree_param":{"num_deleted":"0","num_feature":"9","num_nodes":"167","size_leaf_vector":"0"}},{"base_weights":[4.815776E-3,-1.1213223E0,1.7333702E0,-5.2826357E-1,-1.6487739E0,8.6673456E-1,1.7592399E0,-1.7427266E0,6.764404E-2,-1.8360202E0,-1.1015301E0,1.4279672E0,-1.669901E-2,1.6246032E0,1.8389792E0,-1.8159209E-2,-9.084251E-1,3.7361225E-1,-1.1286561E0,-1.1638353E0,-1.8459685E-2,-1.17633216E-1,-1.5571367E0,-1.2741377E-2,1.6137816E-2,1.7884176E0,-8.165083E-1,1.8466547E-2,1.30213E0,-5.644337E-2,-1.7585404E-2,-1.8393047E-2,5.914816E-1,-1.8549195E-2,2.6814184E-1,-1.4209587E-2,-2.561852E-1,-1.8072959E-2,4.9289134E-1,-1.7795E0,-5.243382E-2,1.8340873E0,1.183147E0,-1.7218431E-2,1.0386827E0,4.22053E-3,1.5111427E-2,9.907122E-3,-5.0090915E-1,1.773041E0,-3.9591105E-4,-3.0711654E-1,1.5847504E-2,3.76496E-3,-8.534878E-3,7.48027E-1,-1.65753E-2,-1.8441822E-2,-1.3448726E0,-1.4005356E0,6.075727E-1,1.5641508E0,1.8686226E-2,5.639955E-1,1.782036E-2,-5.016739E-5,1.2432107E-2,-1.5333263E-2,2.3828089E-1,1.8413823E-2,-1.4524637E-2,-6.1031175E-1,7.023267E-1,-1.2272656E0,3.1833943E-2,1.0245402E0,-8.362845E-2,-1.7585404E-2,-7.7082264E-1,2.1372973E-3,-1.6638985E-2,1.5548883E-2,-1.599124E-2,-1.3259057E-2,1.7916966E-2,1.2856859E0,-8.813507E-1,-4.5165238E-1,1.1411647E-2,-1.4785504E0,1.2370196E-1,9.393796E-1,1.0603114E-1,-1.4443955E0,-0E0,6.445246E-3,-8.199715E-2,1.3470813E0,-4.06036E-2,-6.8849474E-1,1.7370185E-1,3.4335092E-1,-1.6435519E-2,1.6412988E-2,-2.7174994E-3,-1.5333263E-2,4.4063777E-3,5.395305E-3,-1.1017583E-2,-1.817598E-2,-4.1815558E-1,7.890343E-1,-1.4819043E0,1.112783E0,3.1823562E-3,-7.8639317E-1,4.4845402E-1,-2.1373017E-3,-1.6276326E-2,-1.0455757E-2,6.2401745E-2,1.0571954E0,1.7527113E-2,-1.1516878E-2,2.0977306E-1,2.137299E-3,-1.0044456E-2,-5.498792E-1,3.9310858E-1,8.58851E-3,-1.0694949E-2,3.070166E-4,-1.1984653E-2,1.0629553E-2,-1.5425634E-2,-1.7359698E-2,8.997117E-4,8.969122E-3,1.5494127E-2,-8.393607E-3,3.5154554E-3,1.6271962E-4,-1.622772E-2,4.676846E-4,9.086359E-3,-5.9477924E-3,3.1367848E-3,1.227642E-2,1.4437527E-8,7.864553E-3,-3.7712413E-3,2.137299E-3,-1.0694949E-2,7.5319987E-3,-3.345141E-3],"categories":[],"categories_nodes":[],"categories_segments":[],"categories_sizes":[],"default_left":[true,true,true,false,true,true,true,true,true,true,true,false,false,true,true,false,true,false,true,false,false,false,false,false,false,false,false,false,false,true,false,false,true,false,true,false,true,false,true,true,false,true,false,false,true,false,false,false,true,true,true,false,false,false,false,true,false,false,true,true,true,true,false,false,false,false,false,false,true,false,false,true,true,true,false,true,true,false,true,false,false,false,false,false,false,true,true,true,false,true,true,true,true,true,false,false,false,true,false,true,true,true,false,false,false,false,false,false,false,false,true,true,true,false,false,false,false,false,false,false,true,false,false,false,true,false,false,true,true,false,false,false,false,false,false,false,false,false,false,false,false,false,false,false,false,false,false,false,false,false,false,false,false,false,false],"id":7,"left_children":[1,3,5,7,9,11,13,15,17,19,21,23,-1,25,27,-1,29,31,33,35,-1,37,39,-1,-1,41,43,-1,45,47,-1,-1,49,-1,51,-1,53,-1,55,57,59,61,63,-1,65,-1,-1,-1,67,69,71,73,-1,-1,-1,75,-1,-1,77,79,81,83,-1,85,-1,-1,-1,-1,87,-1,-1,89,91,93,95,97,99,-1,101,-1,-1,-1,-1,-1,-1,103,105,107,-1,109,111,113,115,117,-1,-1,119,121,123,125,127,129,-1,-1,-1,-1,-1,-1,-1,-1,131,133,135,137,139,141,143,-1,-1,-1,145,147,-1,-1,149,-1,-1,151,153,-1,-1,-1,-1,-1,-1,-1,-1,-1,-1,-1,-1,-1,-1,-1,-1,-1,-1,-1,-1,-1,-1,-1,-1,-1,-1],"loss_changes":[7.4270127E3,7.218054E2,3.2219727E1,7.88217E2,1.23226074E2,6.729941E1,1.2692383E1,2.0241821E1,2.681675E2,3.9313965E0,1.4062085E2,2.1073326E1,0E0,2.2213318E2,1.3439941E0,0E0,2.2291887E1,2.8229095E2,1.5188387E2,3.3620472E0,0E0,1.04561455E2,7.171277E1,0E0,0E0,1.2133545E1,6.1227528E1,0E0,2.3447533E0,8.163513E0,0E0,0E0,3.7186368E2,0E0,3.981278E1,0E0,2.114252E0,0E0,4.2173687E1,2.7753906E0,2.63528E1,1.5456543E0,1.3501255E1,0E0,2.6169176E0,0E0,0E0,0E0,9.698043E0,4.1794067E1,1.5269815E2,1.1570259E1,0E0,0E0,0E0,1.5581631E1,0E0,0E0,5.272438E0,4.4891586E0,4.4167393E1,4.2165344E1,0E0,2.272339E1,0E0,0E0,0E0,0E0,5.4939303E0,0E0,0E0,1.2173465E2,2.3300194E1,2.658986E0,2.005259E0,1.7454239E1,2.8805904E0,0E0,1.3662116E1,0E0,0E0,0E0,0E0,0E0,0E0,8.317167E0,7.128263E0,3.9753003E0,0E0,3.0681442E1,1.125639E2,1.9205185E1,1.508704E1,1.5640182E0,0E0,0E0,3.4735088E0,2.7215652E0,3.786403E0,1.7812674E0,2.3185682E0,5.830159E0,0E0,0E0,0E0,0E0,0E0,0E0,0E0,0E0,7.9125834E0,4.914325E1,1.2495628E1,8.019867E0,6.01679E0,9.246249E0,6.5164943E0,0E0,0E0,0E0,3.860239E0,4.5425053E0,0E0,0E0,4.102489E0,0E0,0E0,1.6165706E0,3.0671785E0,0E0,0E0,0E0,0E0,0E0,0E0,0E0,0E0,0E0,0E0,0E0,0E0,0E0,0E0,0E0,0E0,0E0,0E0,0E0,0E0,0E0,0E0,0E0,0E0,0E0,0E0],"parents":[2147483647,0,0,1,1,2,2,3,3,4,4,5,5,6,6,7,7,8,8,9,9,10,10,11,11,13,13,14,14,16,16,17,17,18,18,19,19,21,21,22,22,25,25,26,26,28,28,29,29,32,32,34,34,36,36,38,38,39,39,40,40,41,41,42,42,44,44,48,48,49,49,50,50,51,51,55,55,58,58,59,59,60,60,61,61,63,63,68,68,71,71,72,72,73,73,74,74,75,75,76,76,78,78,85,85,86,86,87,87,89,89,90,90,91,91,92,92,93,93,96,96,97,97,98,98,99,99,100,100,101,101,110,110,111,111,112,112,113,113,114,114,115,115,116,116,120,120,121,121,124,124,127,127,128,128],"right_children":[2,4,6,8,10,12,14,16,18,20,22,24,-1,26,28,-1,30,32,34,36,-1,38,40,-1,-1,42,44,-1,46,48,-1,-1,50,-1,52,-1,54,-1,56,58,60,62,64,-1,66,-1,-1,-1,68,70,72,74,-1,-1,-1,76,-1,-1,78,80,82,84,-1,86,-1,-1,-1,-1,88,-1,-1,90,92,94,96,98,100,-1,102,-1,-1,-1,-1,-1,-1,104,106,108,-1,110,112,114,116,118,-1,-1,120,122,124,126,128,130,-1,-1,-1,-1,-1,-1,-1,-1,132,134,136,138,140,142,144,-1,-1,-1,146,148,-1,-1,150,-1,-1,152,154,-1,-1,-1,-1,-1,-1,-1,-1,-1,-1,-1,-1,-1,-1,-1,-1,-1,-1,-1,-1,-1,-1,-1,-1,-1,-1],"split_conditions":[2.3827E2,2.392E1,2.6346E2,6.67E0,1.0516E2,7E0,6.9163E2,6.3E0,1.1E1,2.502E1,2E0,2E0,-1.669901E-2,9E0,1.1906E3,-1.8159209E-2,1E1,2E0,1.3E1,7.287329E1,-1.8459685E-2,1E0,2.1699E2,-1.2741377E-2,1.6137816E-2,5E0,6.1774E2,1.8466547E-2,1.74625E5,4E0,-1.7585404E-2,-1.8393047E-2,4E0,-1.8549195E-2,9.92E0,-1.4209587E-2,8E0,-1.8072959E-2,1.5467E2,2.0066E2,6E0,2E0,6.1774E2,-1.7218431E-2,1.2218E5,4.22053E-3,1.5111427E-2,9.907122E-3,9E0,1.831E1,1.718E1,8.29E0,1.5847504E-2,3.76496E-3,-8.534878E-3,5.1E1,-1.65753E-2,-1.8441822E-2,6E0,1.2234981E1,7E0,3.4064E2,1.8686226E-2,7E0,1.782036E-2,-5.016739E-5,1.2432107E-2,-1.5333263E-2,2.66248E5,1.8413823E-2,-1.4524637E-2,9E0,1E0,2.18E2,1.30759E5,1E0,2.4933731E1,-1.7585404E-2,7E0,2.1372973E-3,-1.6638985E-2,1.5548883E-2,-1.599124E-2,-1.3259057E-2,1.7916966E-2,1E0,5.3841E2,1.09E2,1.1411647E-2,1.5E1,1E1,5.1E1,7E0,1.2218E5,-0E0,6.445246E-3,1.40195E5,7.2021805E1,8.465366E0,7.5E1,1.1118E2,1E0,-1.6435519E-2,1.6412988E-2,-2.7174994E-3,-1.5333263E-2,4.4063777E-3,5.395305E-3,-1.1017583E-2,-1.817598E-2,1E0,1.034E1,1.58E1,1E1,7E0,6E0,4.7E1,-2.1373017E-3,-1.6276326E-2,-1.0455757E-2,3.1E1,4.7E1,1.7527113E-2,-1.1516878E-2,4.952772E1,2.137299E-3,-1.0044456E-2,5.5E1,6.7E1,8.58851E-3,-1.0694949E-2,3.070166E-4,-1.1984653E-2,1.0629553E-2,-1.5425634E-2,-1.7359698E-2,8.997117E-4,8.969122E-3,1.5494127E-2,-8.393607E-3,3.5154554E-3,1.6271962E-4,-1.622772E-2,4.676846E-4,9.086359E-3,-5.9477924E-3,3.1367848E-3,1.227642E-2,1.4437527E-8,7.864553E-3,-3.7712413E-3,2.137299E-3,-1.0694949E-2,7.5319987E-3,-3.345141E-3],"split_indices":[3,3,3,3,3,2,3,3,2,3,2,2,0,2,3,0,2,2,2,7,0,2,3,0,0,2,3,0,1,2,0,0,2,0,3,0,2,0,3,3,2,2,3,0,1,0,0,0,2,3,3,3,0,0,0,6,0,0,2,7,2,3,0,2,0,0,0,0,1,0,0,2,0,8,1,0,7,0,2,0,0,0,0,0,0,0,3,4,0,3,2,6,2,1,0,0,1,7,7,4,3,0,0,0,0,0,0,0,0,0,0,3,3,2,2,2,6,0,0,0,6,6,0,0,7,0,0,6,6,0,0,0,0,0,0,0,0,0,0,0,0,0,0,0,0,0,0,0,0,0,0,0,0,0,0],"split_type":[0,0,0,0,0,0,0,0,0,0,0,0,0,0,0,0,0,0,0,0,0,0,0,0,0,0,0,0,0,0,0,0,0,0,0,0,0,0,0,0,0,0,0,0,0,0,0,0,0,0,0,0,0,0,0,0,0,0,0,0,0,0,0,0,0,0,0,0,0,0,0,0,0,0,0,0,0,0,0,0,0,0,0,0,0,0,0,0,0,0,0,0,0,0,0,0,0,0,0,0,0,0,0,0,0,0,0,0,0,0,0,0,0,0,0,0,0,0,0,0,0,0,0,0,0,0,0,0,0,0,0,0,0,0,0,0,0,0,0,0,0,0,0,0,0,0,0,0,0,0,0,0,0,0,0],"sum_hessian":[3.8133955E3,2.3092747E3,1.504121E3,1.0879742E3,1.2213004E3,4.459771E1,1.4595233E3,3.5748776E2,7.3048645E2,9.08195E2,3.131054E2,3.6875942E1,7.721768E0,5.508347E2,9.086886E2,3.2757285E2,2.9914923E1,5.822553E2,1.4823111E2,1.4965826E1,8.932292E2,9.94969E1,2.136085E2,1.9958179E0,3.4880123E1,5.1644525E2,3.4389477E1,8.9347455E2,1.5214059E1,1.5473673E1,1.444125E1,5.1520023E1,5.307353E2,9.7307976E1,5.0923138E1,1.122143E1,3.7443962E0,2.5888557E1,7.3608345E1,1.8594685E2,2.7661655E1,4.783239E2,3.812134E1,2.3159498E1,1.1229979E1,3.4992523E0,1.1714807E1,4.244557E0,1.12291155E1,1.7646477E2,3.542705E2,3.597258E1,1.4950559E1,1.9978671E0,1.7465291E0,6.638435E1,7.2239904E0,1.5903566E2,2.69112E1,8.722808E0,1.8938847E1,5.9505623E1,4.188183E2,1.9698309E1,1.8423033E1,1.99992E0,9.230059E0,4.237008E0,6.9921074E0,1.7322366E2,3.2411108E0,1.8972955E2,1.6454095E2,8.978328E0,2.6994251E1,4.96459E1,1.6738453E1,1.4441249E1,1.2469951E1,1.2499273E0,7.472881E0,1.3457175E1,5.481671E0,3.9908552E0,5.5514767E1,1.3211838E1,6.486471E0,4.246748E0,2.7453597E0,8.645302E1,1.03276535E2,1.1732423E2,4.7216724E1,7.4783278E0,1.5E0,3.4989889E0,2.3495262E1,3.7903477E1,1.1742425E1,4.495665E0,1.2242788E1,5.743748E0,6.7262025E0,1.0712077E1,2.4997604E0,4.237008E0,2.249463E0,1.749486E0,2.497262E0,6.496668E1,2.148634E1,7.337848E1,2.9898056E1,9.8830185E1,1.8494043E1,1.2733654E1,3.448307E1,1.2499266E0,6.228401E0,2.2487035E0,2.124656E1,2.4208807E1,1.3694669E1,1.4974489E0,1.0244976E1,1.2499272E0,3.2457378E0,2.4980996E0,9.744689E0,4.495576E0,1.2481724E0,1.4249983E1,7.2363567E0,6.6151024E1,7.2274528E0,2.5648102E1,4.2499547E0,6.817733E1,3.0652851E1,4.997577E0,1.3496467E1,6.998144E0,5.73551E0,1.8999945E1,1.5483126E1,5.4986196E0,1.5747939E1,2.0708794E1,3.5000134E0,4.9959545E0,5.2490215E0,1.2499272E0,1.2481724E0,6.495163E0,3.2495263E0],"tree_param":{"num_deleted":"0","num_feature":"9","num_nodes":"155","size_leaf_vector":"0"}},{"base_weights":[4.724928E-3,-1.1114869E0,1.7183081E0,-5.236228E-1,-1.6344376E0,8.586244E-1,1.7439781E0,-1.6917497E0,8.508195E-2,-1.8200842E0,-1.0919894E0,1.415148E0,-1.6567038E-2,1.6105037E0,1.8230288E0,-1.8001204E-2,-8.7431157E-1,3.8123655E-1,-1.0931476E0,-1.3439444E-2,-1.8347648E0,-1.1678902E-1,-1.5437806E0,-1.26617765E-2,1.599673E-2,1.7729458E0,-8.0921173E-1,1.8306358E-2,1.2911481E0,-5.5336755E-2,-1.7776322E-2,-1.8232768E-2,5.9989226E-1,-1.8380929E-2,2.8612015E-1,-1.8494362E-2,-1.5258613E0,-1.7920861E-2,4.8815033E-1,-1.7642311E0,-5.2479178E-2,1.8182274E0,1.172983E0,-1.7072244E-2,1.0297489E0,4.187922E-3,1.4984456E-2,1.0253593E0,-5.110327E-1,1.7564765E0,1.5448574E-2,-2.833695E-1,1.5713355E-2,-3.3788252E-1,-1.8086636E-2,7.4107397E-1,-1.6445098E-2,-1.8282602E-2,-1.3339733E0,-1.3891727E0,6.020204E-1,1.5504338E0,1.8524922E-2,5.589033E-1,1.7672032E-2,-4.9833212E-5,1.2326234E-2,-1.1065943E-2,1.6058031E-2,-1.5870176E-2,7.6470174E-2,1.8250855E0,-1.4422631E-2,-5.9853506E-1,6.9563454E-1,-1.183106E0,3.1273935E-2,-1.2649741E-2,5.181961E-2,1.0153545E0,-8.350078E-2,-1.7440535E-2,-7.649974E-1,2.1254485E-3,-1.6507871E-2,1.5417636E-2,-1.58693E-2,-1.3160187E-2,1.7762762E-2,1.2748059E0,-8.744678E-1,3.0204E-1,-1.1097838E-2,1.8355241E-2,6.24335E-3,-1.4598739E0,1.6276215E-1,9.305442E-1,1.0485709E-1,-1.4056567E0,-0E0,1.3137639E-1,-6.511067E-1,5.3293025E-1,-9.290031E-3,1.3353561E0,-4.078735E-2,-6.832089E-1,1.716627E-1,3.396975E-1,-1.6307313E-2,1.6278451E-2,-2.6981425E-3,-1.5220421E-2,4.376092E-3,9.129046E-3,-2.6314515E-1,-1.8008517E-2,-4.145689E-1,8.4786683E-1,-1.452366E0,1.1024532E0,2.9003466E-3,-7.799843E-1,4.4430166E-1,-2.1254465E-3,-1.5958233E-2,3.282723E-1,-5.9348315E-1,-1.1747194E-2,2.1992335E-3,-4.0547666E-3,1.203134E-2,1.0476166E0,1.7383102E-2,-1.1451326E-2,2.0806733E-1,2.1254197E-3,-9.970648E-3,-5.469165E-1,3.8962454E-1,8.520253E-3,-1.0638169E-2,-8.551906E-3,5.3108474E-3,3.0414498E-4,-1.1885191E-2,1.14767235E-2,-1.5302542E-2,-1.7140841E-2,8.924317E-4,8.883476E-3,1.5357978E-2,-2.5212404E-3,1.142499E-2,-1.2016835E-2,6.6296244E-3,4.6324098E-4,9.003731E-3,1.3669527E-3,1.0287436E-2,-9.775095E-3,1.807848E-3,1.2166128E-2,-1.1920922E-9,7.8005847E-3,-3.7397342E-3,2.1254465E-3,-1.0638169E-2,7.4681574E-3,-3.3196711E-3],"categories":[],"categories_nodes":[],"categories_segments":[],"categories_sizes":[],"default_left":[true,true,true,true,true,true,false,true,false,true,true,false,false,true,true,false,true,false,true,false,true,false,true,false,false,true,true,false,true,true,false,false,true,false,false,false,true,false,true,true,true,false,true,false,false,false,false,false,true,true,true,true,false,false,false,false,false,false,false,true,true,true,false,true,false,false,false,false,false,false,true,true,false,true,true,true,false,false,true,false,true,false,false,false,false,false,false,false,false,true,true,false,false,false,false,true,true,false,false,false,false,true,true,false,false,true,true,true,true,false,false,false,false,false,false,false,true,false,false,false,true,true,true,true,true,false,false,false,true,false,false,false,false,false,false,false,true,false,false,false,false,false,false,false,false,false,false,false,false,false,false,false,false,false,false,false,false,false,false,false,false,false,false,false,false,false,false,false,false,false,false],"id":8,"left_children":[1,3,5,7,9,11,13,15,17,19,21,23,-1,25,27,-1,29,31,33,-1,35,37,39,-1,-1,41,43,-1,45,47,-1,-1,49,-1,51,-1,53,-1,55,57,59,61,63,-1,65,-1,-1,67,69,71,73,75,-1,77,-1,79,-1,-1,81,83,85,87,-1,89,-1,-1,-1,-1,-1,-1,91,93,-1,95,97,99,101,-1,103,105,107,-1,109,-1,-1,-1,-1,-1,-1,111,113,115,-1,-1,-1,117,119,121,123,125,-1,127,129,131,-1,133,135,137,139,141,-1,-1,-1,-1,-1,-1,143,-1,145,147,149,151,153,155,157,-1,-1,159,161,-1,-1,-1,-1,163,-1,-1,165,-1,-1,167,169,-1,-1,-1,-1,-1,-1,-1,-1,-1,-1,-1,-1,-1,-1,-1,-1,-1,-1,-1,-1,-1,-1,-1,-1,-1,-1,-1,-1,-1,-1],"loss_changes":[7.289049E3,7.085708E2,3.1674805E1,7.73667E2,1.2094971E2,6.6111305E1,1.245459E1,3.1444824E1,2.5030534E2,3.8811035E0,1.3806244E2,2.0747368E1,0E0,2.1806262E2,1.3120117E0,0E0,3.3617302E1,2.773125E2,1.4859311E2,0E0,1.1577148E0,1.0264829E2,7.037573E1,0E0,0E0,1.1906372E1,6.014807E1,0E0,2.3026543E0,1.2803796E1,0E0,0E0,3.5287552E2,0E0,3.8067707E1,0E0,1.4685425E1,0E0,4.1439964E1,2.704895E0,2.5888645E1,1.5202637E0,1.3273796E1,0E0,2.572379E0,0E0,0E0,1.1340749E1,1.1630657E1,4.1092285E1,1.4567851E2,1.0360552E1,0E0,3.6727877E0,0E0,1.531707E1,0E0,0E0,5.172119E0,4.4216824E0,4.342489E1,4.1460495E1,0E0,2.2338806E1,0E0,0E0,0E0,0E0,0E0,0E0,3.741696E0,1.0100098E0,0E0,1.2046623E2,2.286782E1,2.4945612E0,1.9976453E0,0E0,4.2655168E0,1.7160763E1,2.831162E0,0E0,1.3427782E1,0E0,0E0,0E0,0E0,0E0,0E0,8.182972E0,7.023672E0,4.204641E0,0E0,0E0,0E0,2.9949844E1,1.0992217E2,1.88581E1,1.4825675E1,1.4700794E0,0E0,3.7976203E0,1.9681762E0,4.2589407E0,0E0,2.686325E0,3.7395406E0,1.7565935E0,2.2868807E0,5.7542386E0,0E0,0E0,0E0,0E0,0E0,0E0,3.623741E0,0E0,7.778943E0,5.138063E1,1.2105495E1,7.8934402E0,5.9535704E0,9.150428E0,6.3977857E0,0E0,0E0,2.609697E0,1.8859406E0,0E0,0E0,0E0,0E0,4.460909E0,0E0,0E0,4.0349293E0,0E0,0E0,1.5991197E0,3.0169177E0,0E0,0E0,0E0,0E0,0E0,0E0,0E0,0E0,0E0,0E0,0E0,0E0,0E0,0E0,0E0,0E0,0E0,0E0,0E0,0E0,0E0,0E0,0E0,0E0,0E0,0E0,0E0,0E0,0E0,0E0],"parents":[2147483647,0,0,1,1,2,2,3,3,4,4,5,5,6,6,7,7,8,8,9,9,10,10,11,11,13,13,14,14,16,16,17,17,18,18,20,20,21,21,22,22,25,25,26,26,28,28,29,29,32,32,34,34,36,36,38,38,39,39,40,40,41,41,42,42,44,44,47,47,48,48,49,49,50,50,51,51,53,53,55,55,58,58,59,59,60,60,61,61,63,63,70,70,71,71,73,73,74,74,75,75,76,76,78,78,79,79,80,80,82,82,89,89,90,90,91,91,95,95,96,96,97,97,98,98,99,99,101,101,102,102,103,103,105,105,106,106,107,107,108,108,109,109,116,116,118,118,119,119,120,120,121,121,122,122,123,123,124,124,127,127,128,128,133,133,136,136,139,139,140,140],"right_children":[2,4,6,8,10,12,14,16,18,20,22,24,-1,26,28,-1,30,32,34,-1,36,38,40,-1,-1,42,44,-1,46,48,-1,-1,50,-1,52,-1,54,-1,56,58,60,62,64,-1,66,-1,-1,68,70,72,74,76,-1,78,-1,80,-1,-1,82,84,86,88,-1,90,-1,-1,-1,-1,-1,-1,92,94,-1,96,98,100,102,-1,104,106,108,-1,110,-1,-1,-1,-1,-1,-1,112,114,116,-1,-1,-1,118,120,122,124,126,-1,128,130,132,-1,134,136,138,140,142,-1,-1,-1,-1,-1,-1,144,-1,146,148,150,152,154,156,158,-1,-1,160,162,-1,-1,-1,-1,164,-1,-1,166,-1,-1,168,170,-1,-1,-1,-1,-1,-1,-1,-1,-1,-1,-1,-1,-1,-1,-1,-1,-1,-1,-1,-1,-1,-1,-1,-1,-1,-1,-1,-1,-1,-1],"split_conditions":[2.3827E2,2.392E1,2.6346E2,6.88E0,1.0516E2,7E0,6.9163E2,6.3E0,1.1E1,2.609E1,2E0,2E0,-1.6567038E-2,9E0,1.1906E3,-1.8001204E-2,1E1,2E0,1.3E1,-1.3439444E-2,9.737E1,1E0,2.1699E2,-1.26617765E-2,1.599673E-2,5E0,6.1774E2,1.8306358E-2,1.74625E5,4E0,-1.7776322E-2,-1.8232768E-2,4E0,-1.8380929E-2,9.92E0,-1.8494362E-2,2E0,-1.7920861E-2,1.5467E2,2.0066E2,6E0,2E0,6.1774E2,-1.7072244E-2,1.2218E5,4.187922E-3,1.4984456E-2,2E0,9E0,1.831E1,1.718E1,8.29E0,1.5713355E-2,1E0,-1.8086636E-2,5.1E1,-1.6445098E-2,-1.8282602E-2,6E0,1.2234981E1,7E0,3.4064E2,1.8524922E-2,7E0,1.7672032E-2,-4.9833212E-5,1.2326234E-2,-1.1065943E-2,1.6058031E-2,-1.5870176E-2,9.149557E1,1.58E1,-1.4422631E-2,9E0,1E0,2.18E2,8.61799E5,-1.2649741E-2,5.1E1,1E0,2.4933731E1,-1.7440535E-2,7E0,2.1254485E-3,-1.6507871E-2,1.5417636E-2,-1.58693E-2,-1.3160187E-2,1.7762762E-2,1E0,5.3841E2,1E0,-1.1097838E-2,1.8355241E-2,6.24335E-3,1.5E1,1E1,5.1E1,7E0,1.2218E5,-0E0,9.460958E1,2.936116E6,3E0,-9.290031E-3,7.2021805E1,8.465366E0,7.5E1,1.1118E2,1E0,-1.6307313E-2,1.6278451E-2,-2.6981425E-3,-1.5220421E-2,4.376092E-3,9.129046E-3,5E1,-1.8008517E-2,1E0,1.034E1,1.58E1,1E1,8.5E1,5.9E1,4.7E1,-2.1254465E-3,-1.5958233E-2,7.492245E1,3.32386E5,-1.1747194E-2,2.1992335E-3,-4.0547666E-3,1.203134E-2,4.7E1,1.7383102E-2,-1.1451326E-2,4.952772E1,2.1254197E-3,-9.970648E-3,5.5E1,6.7E1,8.520253E-3,-1.0638169E-2,-8.551906E-3,5.3108474E-3,3.0414498E-4,-1.1885191E-2,1.14767235E-2,-1.5302542E-2,-1.7140841E-2,8.924317E-4,8.883476E-3,1.5357978E-2,-2.5212404E-3,1.142499E-2,-1.2016835E-2,6.6296244E-3,4.6324098E-4,9.003731E-3,1.3669527E-3,1.0287436E-2,-9.775095E-3,1.807848E-3,1.2166128E-2,-1.1920922E-9,7.8005847E-3,-3.7397342E-3,2.1254465E-3,-1.0638169E-2,7.4681574E-3,-3.3196711E-3],"split_indices":[3,3,3,3,3,2,3,3,2,3,2,2,0,2,3,0,2,2,2,0,3,2,3,0,0,2,3,0,1,2,0,0,2,0,3,0,2,0,3,3,2,2,3,0,1,0,0,2,2,3,3,3,0,2,0,6,0,0,2,7,2,3,0,2,0,0,0,0,0,0,7,3,0,2,0,8,1,0,6,0,7,0,2,0,0,0,0,0,0,0,3,0,0,0,0,3,2,6,2,1,0,7,1,5,0,7,7,4,3,0,0,0,0,0,0,0,6,0,0,3,3,2,6,6,6,0,0,7,1,0,0,0,0,6,0,0,7,0,0,6,6,0,0,0,0,0,0,0,0,0,0,0,0,0,0,0,0,0,0,0,0,0,0,0,0,0,0,0,0,0,0],"split_type":[0,0,0,0,0,0,0,0,0,0,0,0,0,0,0,0,0,0,0,0,0,0,0,0,0,0,0,0,0,0,0,0,0,0,0,0,0,0,0,0,0,0,0,0,0,0,0,0,0,0,0,0,0,0,0,0,0,0,0,0,0,0,0,0,0,0,0,0,0,0,0,0,0,0,0,0,0,0,0,0,0,0,0,0,0,0,0,0,0,0,0,0,0,0,0,0,0,0,0,0,0,0,0,0,0,0,0,0,0,0,0,0,0,0,0,0,0,0,0,0,0,0,0,0,0,0,0,0,0,0,0,0,0,0,0,0,0,0,0,0,0,0,0,0,0,0,0,0,0,0,0,0,0,0,0,0,0,0,0,0,0,0,0,0,0,0,0,0,0,0,0],"sum_hessian":[3.808827E3,2.306649E3,1.502178E3,1.0868689E3,1.21978E3,4.4552948E1,1.457625E3,3.7172867E2,7.151402E2,9.070106E2,3.1276944E2,3.6839493E1,7.7134542E0,5.501271E2,9.074979E2,3.2715445E2,4.4574226E1,5.7203296E2,1.4310725E2,2.9897093E1,8.771135E2,9.942249E1,2.1334695E2,1.9945743E0,3.4844917E1,5.1576935E2,3.4357704E1,8.9229443E2,1.5203481E1,2.3935194E1,2.0639032E1,5.0955433E1,5.210775E2,9.2704636E1,5.040262E1,8.325831E2,4.4530388E1,2.585584E1,7.356665E1,1.857113E2,2.7635647E1,4.776859E2,3.8083424E1,2.3132927E1,1.1224777E1,3.4990242E0,1.1704456E1,6.728431E0,1.7206762E1,1.7424673E2,3.4683078E2,3.546659E1,1.4936027E1,8.984337E0,3.554605E1,6.635032E1,7.2163286E0,1.5882622E2,2.6885092E1,8.714798E0,1.8920849E1,5.9433914E1,4.1825198E2,1.9683083E1,1.8400341E1,1.999919E0,9.224858E0,1.245882E0,5.482549E0,5.4761496E0,1.1730613E1,1.7100826E2,3.2384796E0,1.8234943E2,1.6448135E2,8.474175E0,2.6992414E1,1.9941946E0,6.990142E0,4.961528E1,1.6735044E1,1.4423985E1,1.2461107E1,1.2499045E0,7.4648933E0,1.3444585E1,5.4762645E0,3.9881444E0,5.544577E1,1.3200611E1,6.4824715E0,1.0482682E1,1.2479305E0,1.6901031E2,1.997943E0,8.5122925E1,9.72265E1,1.1727458E2,4.7206776E1,6.9741755E0,1.5E0,2.424347E1,2.7489445E0,4.996112E0,1.9940302E0,3.7875095E1,1.1740183E1,4.494391E0,1.2240653E1,5.7419176E0,6.7191896E0,1.0700922E1,2.4996893E0,4.2331696E0,2.249302E0,4.742092E0,5.74059E0,6.364061E1,2.1482313E1,6.8601974E1,2.8624527E1,9.878036E1,1.8494226E1,1.272868E1,3.4478096E1,1.249905E0,5.7242703E0,1.949508E1,4.748389E0,1.4991107E0,1.2498338E0,2.2461245E0,2.7499874E0,2.4196692E1,1.3678405E1,1.4966904E0,1.0243492E1,1.2499149E0,3.244476E0,2.4975312E0,9.743122E0,4.4942913E0,1.2476263E0,3.244945E0,2.495645E0,1.4249977E1,7.232336E0,6.138116E1,7.2208123E0,2.4374586E1,4.249942E0,6.815601E1,3.0624342E1,1.5748679E1,2.7455473E0,9.979412E0,2.7492676E0,1.8999931E1,1.5478166E1,1.6246778E1,3.2483032E0,2.9986196E0,1.7497692E0,2.069669E1,3.5000024E0,4.9947596E0,5.2487326E0,1.249905E0,1.2476262E0,6.4937363E0,3.249386E0],"tree_param":{"num_deleted":"0","num_feature":"9","num_nodes":"171","size_leaf_vector":"0"}},{"base_weights":[4.6330844E-3,-1.1018946E0,1.703638E0,-5.190709E-1,-1.6204958E0,8.50685E-1,1.7291155E0,-1.677269E0,8.425057E-2,-1.8046077E0,-1.0826699E0,1.4026E0,-1.6438005E-2,1.5967698E0,1.8074971E0,-1.784727E-2,-8.670949E-1,3.777621E-1,-1.0836309E0,-1.3320085E-2,-1.8191899E0,-1.1596184E-1,-1.5307615E0,-1.2583328E-2,1.585869E-2,1.7578802E0,-8.0206984E-1,1.8150397E-2,1.2803596E0,-5.5455398E-2,-1.7630044E-2,-1.8080035E-2,5.9444976E-1,-1.8226048E-2,2.8323537E-1,-1.8337268E-2,-1.5131214E0,-1.7772626E-2,4.8348603E-1,-1.7493553E0,-5.2526243E-2,1.8027891E0,1.1630415E0,-1.692957E-2,1.0209475E0,4.1555893E-3,1.4860004E-2,1.0164443E0,-5.0728536E-1,1.7415069E0,1.5266886E-2,-2.8125793E-1,1.5582031E-2,-3.3600077E-1,-1.7936079E-2,7.34229E-1,-1.6317762E-2,-1.8127572E-2,-1.3233128E0,-1.3780392E0,5.9658283E-1,1.5370535E0,1.8367944E-2,5.539057E-1,1.7527375E-2,-4.95012E-5,1.2222061E0,-1.1005134E-2,1.593483E-2,-1.5750755E-2,7.530427E-2,1.8096322E-2,-1.4322487E-2,-5.93368E-1,6.891894E-1,-1.1739935E0,3.0753756E-2,-1.2571477E-2,5.1145647E-2,1.0063238E0,-8.337235E-2,-1.7299183E-2,-7.592786E-1,2.113663E-3,-1.6379664E-2,1.5289099E-2,-1.5749894E-2,-1.30629325E-2,1.7612444E-2,1.2641381E0,-8.676956E-1,1.9638143E-3,1.343188E0,2.995638E-1,-1.1036563E-2,-1.4472324E0,1.6104674E-1,9.2196923E-1,1.03916444E-1,-1.3950101E0,-0E0,6.3878493E-3,-8.217613E-2,5.289673E-1,-9.231427E-3,1.3238482E0,-4.096755E-2,-6.7798406E-1,1.6964693E-1,3.3608913E-1,-1.6181886E-2,1.6146868E-2,-2.6789338E-3,-1.5109766E-2,4.3460415E-3,1.963815E-3,1.5033239E-2,9.055674E-3,-2.6099023E-1,-1.7856464E-2,-4.110216E-1,8.398223E-1,-1.4399393E0,1.0922844E0,3.3288694E-3,-7.728755E-1,4.401952E-1,-2.1136631E-3,-1.5837694E-2,-1.0378157E-2,6.105359E-2,-4.027186E-3,1.1943205E-2,1.0381838E0,1.7242571E-2,-1.1386596E-2,2.0637868E-1,2.1136615E-3,-9.897749E-3,-5.4397905E-1,3.8617796E-1,8.4527815E-3,-1.0582019E-2,-8.485537E-3,5.2735345E-3,3.0130474E-4,-1.1787241E-2,1.1369835E-2,-1.5181892E-2,-1.6997498E-2,8.8521E-4,8.798972E-3,1.5224662E-2,-8.332572E-3,3.4920159E-3,2.1402095E-4,-1.6022278E-2,4.5884075E-4,8.922175E-3,-5.8975993E-3,3.099265E-3,1.2057628E-2,-0E0,7.7373264E-3,-3.7085158E-3,2.1136394E-3,-1.0582019E-2,7.405026E-3,-3.2944088E-3],"categories":[],"categories_nodes":[],"categories_segments":[],"categories_sizes":[],"default_left":[true,false,false,true,true,true,true,false,true,false,true,false,false,false,true,false,true,false,true,false,true,false,true,false,false,true,true,false,true,true,false,false,false,false,true,false,true,false,true,true,true,true,false,false,false,false,false,false,true,false,true,false,false,false,false,false,false,false,true,true,false,false,false,false,false,false,true,false,false,false,true,false,false,false,true,true,false,false,true,true,false,false,true,false,false,false,false,false,false,true,false,false,true,false,false,true,true,true,true,true,false,false,false,false,false,false,false,true,true,true,false,false,false,false,false,false,false,false,false,false,true,false,true,true,true,false,true,false,false,false,false,false,false,true,false,false,true,false,false,true,false,false,false,false,false,false,false,false,false,false,false,false,false,false,false,false,false,false,false,false,false,false,false,false,false,false,false,false,false],"id":9,"left_children":[1,3,5,7,9,11,13,15,17,19,21,23,-1,25,27,-1,29,31,33,-1,35,37,39,-1,-1,41,43,-1,45,47,-1,-1,49,-1,51,-1,53,-1,55,57,59,61,63,-1,65,-1,-1,67,69,71,73,75,-1,77,-1,79,-1,-1,81,83,85,87,-1,89,-1,-1,91,-1,-1,-1,93,-1,-1,95,97,99,101,-1,103,105,107,-1,109,-1,-1,-1,-1,-1,-1,111,113,-1,115,117,-1,119,121,123,125,127,-1,-1,129,131,-1,133,135,137,139,141,-1,-1,-1,-1,-1,-1,-1,-1,143,-1,145,147,149,151,153,155,157,-1,-1,-1,159,-1,-1,161,-1,-1,163,-1,-1,165,167,-1,-1,-1,-1,-1,-1,-1,-1,-1,-1,-1,-1,-1,-1,-1,-1,-1,-1,-1,-1,-1,-1,-1,-1,-1,-1,-1,-1],"loss_changes":[7.154733E3,6.957644E2,3.114746E1,7.59444E2,1.1875928E2,6.495148E1,1.2223145E1,3.085791E1,2.4564352E2,3.8251953E0,1.355766E2,2.0428734E1,0E0,2.1410303E2,1.282959E0,0E0,3.301203E1,2.7221213E2,1.4591174E2,0E0,1.1264648E0,1.0078355E2,6.9076385E1,0E0,0E0,1.1687988E1,5.909518E1,0E0,2.2619762E0,1.25861E1,0E0,0E0,3.464933E2,0E0,3.7415615E1,0E0,1.4412018E1,